{"learner":{"attributes":{"best_iteration":"199","best_ntree_limit":"200","scikit_learn":"{\"use_label_encoder\": null, \"n_estimators\": 200, \"objective\": \"binary:logistic\", \"max_depth\": 4, \"max_leaves\": null, \"max_bin\": null, \"grow_policy\": null, \"learning_rate\": 0.05, \"verbosity\": null, \"booster\": null, \"tree_method\": null, \"gamma\": null, \"min_child_weight\": null, \"max_delta_step\": null, \"subsample\": null, \"sampling_method\": null, \"colsample_bytree\": null, \"colsample_bylevel\": null, \"colsample_bynode\": null, \"reg_alpha\": null, \"reg_lambda\": null, \"scale_pos_weight\": null, \"base_score\": null, \"missing\": NaN, \"num_parallel_tree\": null, \"random_state\": null, \"n_jobs\": null, \"monotone_constraints\": null, \"interaction_constraints\": null, \"importance_type\": null, \"gpu_id\": null, \"validate_parameters\": null, \"predictor\": null, \"enable_categorical\": false, \"feature_types\": null, \"max_cat_to_onehot\": null, \"max_cat_threshold\": null, \"eval_metric\": null, \"early_stopping_rounds\": null, \"callbacks\": null, \"classes_\": [0, 1], \"n_classes_\": 2, \"_estimator_type\": \"classifier\"}"},"feature_names":["temperature","humidity","wind_speed"],"feature_types":["float","float","float"],"gradient_booster":{"model":{"gbtree_model_param":{"num_parallel_tree":"1","num_trees":"200","size_leaf_vector":"0"},"tree_info":[0,0,0,0,0,0,0,0,0,0,0,0,0,0,0,0,0,0,0,0,0,0,0,0,0,0,0,0,0,0,0,0,0,0,0,0,0,0,0,0,0,0,0,0,0,0,0,0,0,0,0,0,0,0,0,0,0,0,0,0,0,0,0,0,0,0,0,0,0,0,0,0,0,0,0,0,0,0,0,0,0,0,0,0,0,0,0,0,0,0,0,0,0,0,0,0,0,0,0,0,0,0,0,0,0,0,0,0,0,0,0,0,0,0,0,0,0,0,0,0,0,0,0,0,0,0,0,0,0,0,0,0,0,0,0,0,0,0,0,0,0,0,0,0,0,0,0,0,0,0,0,0,0,0,0,0,0,0,0,0,0,0,0,0,0,0,0,0,0,0,0,0,0,0,0,0,0,0,0,0,0,0,0,0,0,0,0,0,0,0,0,0,0,0,0,0,0,0,0,0],"trees":[{"base_weights":[-1.9004976E0,-1.9871383E0,-1.5698925E0,-6.2068963E-1,-1.939394E0,-1.8E0,1.6363636E0],"categories":[],"categories_nodes":[],"categories_segments":[],"categories_sizes":[],"default_left":[1,0,1,1,0,0,0],"id":0,"left_children":[1,-1,3,5,-1,-1,-1],"loss_changes":[2.6378174E0,0E0,1.5105278E1,4.1541065E1,0E0,0E0,0E0],"parents":[2147483647,0,0,2,2,3,3],"right_children":[2,-1,4,6,-1,-1,-1],"split_conditions":[1.2083525E1,-9.935691E-2,4.466032E1,3.18704E1,-9.69697E-2,-8.9999996E-2,8.1818186E-2],"split_indices":[2,0,1,0,0,0,0],"split_type":[0,0,0,0,0,0,0],"sum_hessian":[2E2,1.545E2,4.55E1,1.35E1,3.2E1,9E0,4.5E0],"tree_param":{"num_deleted":"0","num_feature":"3","num_nodes":"7","size_leaf_vector":"0"}},{"base_weights":[-1.8109046E0,-1.8931358E0,-1.4969647E0,-5.9129184E-1,-1.8496461E0,-1.7221891E0,1.5716083E0],"categories":[],"categories_nodes":[],"categories_segments":[],"categories_sizes":[],"default_left":[1,0,1,1,0,0,0],"id":1,"left_children":[1,-1,3,5,-1,-1,-1],"loss_changes":[2.3425293E0,0E0,1.372686E1,3.8110943E1,0E0,0E0,0E0],"parents":[2147483647,0,0,2,2,3,3],"right_children":[2,-1,4,6,-1,-1,-1],"split_conditions":[1.2083525E1,-9.465679E-2,4.466032E1,3.18704E1,-9.2482306E-2,-8.610945E-2,7.858042E-2],"split_indices":[2,0,1,0,0,0,0],"split_type":[0,0,0,0,0,0,0],"sum_hessian":[1.995185E2,1.5411932E2,4.5399166E1,1.34742775E1,3.192489E1,8.9818E0,4.4924774E0],"tree_param":{"num_deleted":"0","num_feature":"3","num_nodes":"7","size_leaf_vector":"0"}},{"base_weights":[-1.7332475E0,-1.8118091E0,-1.4332222E0,-5.6516355E-1,-1.7715529E0,-1.6533881E0,1.5133392E0],"categories":[],"categories_nodes":[],"categories_segments":[],"categories_sizes":[],"default_left":[1,0,1,1,0,0,0],"id":2,"left_children":[1,-1,3,5,-1,-1,-1],"loss_changes":[2.0979004E0,0E0,1.2542725E1,3.5077152E1,0E0,0E0,0E0],"parents":[2147483647,0,0,2,2,3,3],"right_children":[2,-1,4,6,-1,-1,-1],"split_conditions":[1.2083525E1,-9.0590455E-2,4.466032E1,3.18704E1,-8.857765E-2,-8.266941E-2,7.566696E-2],"split_indices":[2,0,1,0,0,0,0],"split_type":[0,0,0,0,0,0,0],"sum_hessian":[1.9817151E2,1.5305518E2,4.5116333E1,1.3401757E1,3.1714575E1,8.930577E0,4.47118E0],"tree_param":{"num_deleted":"0","num_feature":"3","num_nodes":"7","size_leaf_vector":"0"}},{"base_weights":[-1.6653396E0,-1.7408148E0,-1.3770465E0,-5.4177046E-1,-1.70302E0,-1.5921141E0,1.4606067E0],"categories":[],"categories_nodes":[],"categories_segments":[],"categories_sizes":[],"default_left":[1,0,1,1,0,0,0],"id":3,"left_children":[1,-1,3,5,-1,-1,-1],"loss_changes":[1.8912964E0,0E0,1.15145645E1,3.2377586E1,0E0,0E0,0E0],"parents":[2147483647,0,0,2,2,3,3],"right_children":[2,-1,4,6,-1,-1,-1],"split_conditions":[1.2083525E1,-8.7040745E-2,4.466032E1,3.18704E1,-8.5151E-2,-7.9605706E-2,7.303034E-2],"split_indices":[2,0,1,0,0,0,0],"split_type":[0,0,0,0,0,0,0],"sum_hessian":[1.960915E2,1.5141316E2,4.4678352E1,1.3288877E1,3.1389475E1,8.850991E0,4.437885E0],"tree_param":{"num_deleted":"0","num_feature":"3","num_nodes":"7","size_leaf_vector":"0"}},{"base_weights":[-1.6054993E0,-1.6783565E0,-1.3271755E0,-5.206858E-1,-1.642424E0,-1.5371865E0,1.4126339E0],"categories":[],"categories_nodes":[],"categories_segments":[],"categories_sizes":[],"default_left":[1,0,1,1,0,0,0],"id":4,"left_children":[1,-1,3,5,-1,-1,-1],"loss_changes":[1.714386E0,0E0,1.0613533E1,2.9962471E1,0E0,0E0,0E0],"parents":[2147483647,0,0,2,2,3,3],"right_children":[2,-1,4,6,-1,-1,-1],"split_conditions":[1.2083525E1,-8.391783E-2,4.466032E1,3.18704E1,-8.21212E-2,-7.6859325E-2,7.06317E-2],"split_indices":[2,0,1,0,0,0,0],"split_type":[0,0,0,0,0,0,0],"sum_hessian":[1.9339453E2,1.4928557E2,4.410898E1,1.3141409E1,3.0967567E1,8.747204E0,4.394206E0],"tree_param":{"num_deleted":"0","num_feature":"3","num_nodes":"7","size_leaf_vector":"0"}},{"base_weights":[-1.5524102E0,-1.6230315E0,-1.2826115E0,-5.015659E-1,-1.5884888E0,-1.4876559E0,1.3687776E0],"categories":[],"categories_nodes":[],"categories_segments":[],"categories_sizes":[],"default_left":[1,0,1,1,0,0,0],"id":5,"left_children":[1,-1,3,5,-1,-1,-1],"loss_changes":[1.5610046E0,0E0,9.817581E0,2.779142E1,0E0,0E0,0E0],"parents":[2147483647,0,0,2,2,3,3],"right_children":[2,-1,4,6,-1,-1,-1],"split_conditions":[1.2083525E1,-8.1151575E-2,4.466032E1,3.18704E1,-7.942444E-2,-7.43828E-2,6.843888E-2],"split_indices":[2,0,1,0,0,0,0],"split_type":[0,0,0,0,0,0,0],"sum_hessian":[1.9018236E2,1.4675319E2,4.3429165E1,1.2964524E1,3.0464642E1,8.622921E0,4.3416033E0],"tree_param":{"num_deleted":"0","num_feature":"3","num_nodes":"7","size_leaf_vector":"0"}},{"base_weights":[-1.5050279E0,-1.5737289E0,-1.2425544E0,-4.8412943E-1,-1.5401964E0,-1.4427485E0,1.3285017E0],"categories":[],"categories_nodes":[],"categories_segments":[],"categories_sizes":[],"default_left":[1,0,1,1,0,0,0],"id":6,"left_children":[1,-1,3,5,-1,-1,-1],"loss_changes":[1.4264221E0,0E0,9.109535E0,2.5831308E1,0E0,0E0,0E0],"parents":[2147483647,0,0,2,2,3,3],"right_children":[2,-1,4,6,-1,-1,-1],"split_conditions":[1.2083525E1,-7.8686446E-2,4.466032E1,3.18704E1,-7.700982E-2,-7.213743E-2,6.6425085E-2],"split_indices":[2,0,1,0,0,0,0],"split_type":[0,0,0,0,0,0,0],"sum_hessian":[1.8654417E2,1.4388676E2,4.265741E1,1.2762835E1,2.9894573E1,8.481441E0,4.2813945E0],"tree_param":{"num_deleted":"0","num_feature":"3","num_nodes":"7","size_leaf_vector":"0"}},{"base_weights":[-1.4625114E0,-1.5295569E0,-1.2063547E0,-4.68145E-1,-1.4967238E0,-1.4018285E0,1.2913561E0],"categories":[],"categories_nodes":[],"categories_segments":[],"categories_sizes":[],"default_left":[1,0,1,1,0,0,0],"id":7,"left_children":[1,-1,3,5,-1,-1,-1],"loss_changes":[1.3072815E0,0E0,8.4757805E0,2.4054752E1,0E0,0E0,0E0],"parents":[2147483647,0,0,2,2,3,3],"right_children":[2,-1,4,6,-1,-1,-1],"split_conditions":[1.2083525E1,-7.647785E-2,4.466032E1,3.18704E1,-7.483619E-2,-7.009143E-2,6.4567804E-2],"split_indices":[2,0,1,0,0,0,0],"split_type":[0,0,0,0,0,0,0],"sum_hessian":[1.8255814E2,1.4074812E2,4.1810013E1,1.2540456E1,2.9269556E1,8.325689E0,4.214766E0],"tree_param":{"num_deleted":"0","num_feature":"3","num_nodes":"7","size_leaf_vector":"0"}},{"base_weights":[-1.4241775E0,-1.4897913E0,-1.1734804E0,-4.5342055E-1,-1.4573989E0,-1.364367E0,1.2569596E0],"categories":[],"categories_nodes":[],"categories_segments":[],"categories_sizes":[],"default_left":[1,0,1,1,0,0,0],"id":8,"left_children":[1,-1,3,5,-1,-1,-1],"loss_changes":[1.2009888E0,0E0,7.9054184E0,2.2438848E1,0E0,0E0,0E0],"parents":[2147483647,0,0,2,2,3,3],"right_children":[2,-1,4,6,-1,-1,-1],"split_conditions":[1.2083525E1,-7.448956E-2,4.466032E1,3.18704E1,-7.286995E-2,-6.821835E-2,6.284798E-2],"split_indices":[2,0,1,0,0,0,0],"split_type":[0,0,0,0,0,0,0],"sum_hessian":[1.782927E2,1.3739136E2,4.0901333E1,1.2301048E1,2.8600285E1,8.158266E0,4.1427817E0],"tree_param":{"num_deleted":"0","num_feature":"3","num_nodes":"7","size_leaf_vector":"0"}},{"base_weights":[-1.3894635E0,-1.4538372E0,-1.1434904E0,-4.397945E-1,-1.4216673E0,-1.3299222E0,1.2249882E0],"categories":[],"categories_nodes":[],"categories_segments":[],"categories_sizes":[],"default_left":[1,0,1,1,0,0,0],"id":9,"left_children":[1,-1,3,5,-1,-1,-1],"loss_changes":[1.1054688E0,0E0,7.3896294E0,2.0964361E1,0E0,0E0,0E0],"parents":[2147483647,0,0,2,2,3,3],"right_children":[2,-1,4,6,-1,-1,-1],"split_conditions":[1.2083525E1,-7.269186E-2,4.466032E1,3.18704E1,-7.108337E-2,-6.649611E-2,6.1249413E-2],"split_indices":[2,0,1,0,0,0,0],"split_type":[0,0,0,0,0,0,0],"sum_hessian":[1.7380774E2,1.3386375E2,3.9943993E1,1.2047859E1,2.7896132E1,7.9814653E0,4.066394E0],"tree_param":{"num_deleted":"0","num_feature":"3","num_nodes":"7","size_leaf_vector":"0"}},{"base_weights":[-1.3579026E0,-1.4212016E0,-1.1160165E0,-4.271312E-1,-1.3890665E0,-1.2981209E0,1.1951642E0],"categories":[],"categories_nodes":[],"categories_segments":[],"categories_sizes":[],"default_left":[1,0,1,1,0,0,0],"id":10,"left_children":[1,-1,3,5,-1,-1,-1],"loss_changes":[1.0191956E0,0E0,6.9211044E0,1.961496E1,0E0,0E0,0E0],"parents":[2147483647,0,0,2,2,3,3],"right_children":[2,-1,4,6,-1,-1,-1],"split_conditions":[1.2083525E1,-7.1060084E-2,4.466032E1,3.18704E1,-6.945332E-2,-6.4906046E-2,5.9758212E-2],"split_indices":[2,0,1,0,0,0,0],"split_type":[0,0,0,0,0,0,0],"sum_hessian":[1.6915556E2,1.302065E2,3.8949066E1,1.1783767E1,2.7165298E1,7.7973137E0,3.986453E0],"tree_param":{"num_deleted":"0","num_feature":"3","num_nodes":"7","size_leaf_vector":"0"}},{"base_weights":[-1.329104E0,-1.3873057E0,-1.0761881E0,-4.133713E-1,-1.3531469E0,-1.2600347E0,1.1534128E0],"categories":[],"categories_nodes":[],"categories_segments":[],"categories_sizes":[],"default_left":[1,0,1,1,0,0,0],"id":11,"left_children":[1,-1,3,5,-1,-1,-1],"loss_changes":[9.4140625E-1,0E0,5.93869E0,1.7201736E1,0E0,0E0,0E0],"parents":[2147483647,0,0,2,2,3,3],"right_children":[2,-1,4,6,-1,-1,-1],"split_conditions":[1.2360492E1,-6.9365285E-2,4.466032E1,3.18704E1,-6.7657344E-2,-6.300174E-2,5.767064E-2],"split_indices":[2,0,1,0,0,0,0],"split_type":[0,0,0,0,0,0,0],"sum_hessian":[1.643817E2,1.299841E2,3.43976E1,1.0871795E1,2.3525805E1,7.184952E0,3.6868427E0],"tree_param":{"num_deleted":"0","num_feature":"3","num_nodes":"7","size_leaf_vector":"0"}},{"base_weights":[-1.3025345E0,-1.3643805E0,-1.0663652E0,-4.0145236E-1,-1.3318104E0,-1.2412591E0,1.1446997E0],"categories":[],"categories_nodes":[],"categories_segments":[],"categories_sizes":[],"default_left":[1,0,1,1,0,0,0],"id":12,"left_children":[1,-1,3,5,-1,-1,-1],"loss_changes":[8.900757E-1,0E0,6.154007E0,1.731928E1,0E0,0E0,0E0],"parents":[2147483647,0,0,2,2,3,3],"right_children":[2,-1,4,6,-1,-1,-1],"split_conditions":[1.2083525E1,-6.821903E-2,4.466032E1,3.18704E1,-6.659052E-2,-6.2062956E-2,5.7234984E-2],"split_indices":[2,0,1,0,0,0,0],"split_type":[0,0,0,0,0,0,0],"sum_hessian":[1.5954996E2,1.2265337E2,3.6896584E1,1.124397E1,2.5652615E1,7.414118E0,3.8298514E0],"tree_param":{"num_deleted":"0","num_feature":"3","num_nodes":"7","size_leaf_vector":"0"}},{"base_weights":[-1.2783142E0,-1.3394675E0,-1.0447601E0,-3.91093E-1,-1.3064973E0,-1.215659E0,1.1198033E0],"categories":[],"categories_nodes":[],"categories_segments":[],"categories_sizes":[],"default_left":[1,0,1,1,0,0,0],"id":13,"left_children":[1,-1,3,5,-1,-1,-1],"loss_changes":[8.236084E-1,0E0,5.7923927E0,1.6263283E1,0E0,0E0,0E0],"parents":[2147483647,0,0,2,2,3,3],"right_children":[2,-1,4,6,-1,-1,-1],"split_conditions":[1.2083525E1,-6.697338E-2,4.466032E1,3.18704E1,-6.5324865E-2,-6.078295E-2,5.5990167E-2],"split_indices":[2,0,1,0,0,0,0],"split_type":[0,0,0,0,0,0,0],"sum_hessian":[1.5464664E2,1.188041E2,3.5842545E1,1.0961452E1,2.4881092E1,7.21778E0,3.7436717E0],"tree_param":{"num_deleted":"0","num_feature":"3","num_nodes":"7","size_leaf_vector":"0"}},{"base_weights":[-1.2560066E0,-1.3165668E0,-1.0246804E0,-3.813225E-1,-1.2830787E0,-1.1916797E0,1.0962931E0],"categories":[],"categories_nodes":[],"categories_segments":[],"categories_sizes":[],"default_left":[1,0,1,1,0,0,0],"id":14,"left_children":[1,-1,3,5,-1,-1,-1],"loss_changes":[7.6246643E-1,0E0,5.459366E0,1.5287749E1,0E0,0E0,0E0],"parents":[2147483647,0,0,2,2,3,3],"right_children":[2,-1,4,6,-1,-1,-1],"split_conditions":[1.2083525E1,-6.5828346E-2,4.466032E1,3.18704E1,-6.415393E-2,-5.9583988E-2,5.4814655E-2],"split_indices":[2,0,1,0,0,0,0],"split_type":[0,0,0,0,0,0,0],"sum_hessian":[1.4972519E2,1.149424E2,3.47828E1,1.0676433E1,2.4106365E1,7.0200133E0,3.6564195E0],"tree_param":{"num_deleted":"0","num_feature":"3","num_nodes":"7","size_leaf_vector":"0"}},{"base_weights":[-1.2354052E0,-1.2954618E0,-1.005959E0,-3.7207735E-1,-1.261347E0,-1.1691453E0,1.0740294E0],"categories":[],"categories_nodes":[],"categories_segments":[],"categories_sizes":[],"default_left":[1,0,1,1,0,0,0],"id":15,"left_children":[1,-1,3,5,-1,-1,-1],"loss_changes":[7.0606995E-1,0E0,5.151821E0,1.4384817E1,0E0,0E0,0E0],"parents":[2147483647,0,0,2,2,3,3],"right_children":[2,-1,4,6,-1,-1,-1],"split_conditions":[1.2083525E1,-6.477309E-2,4.466032E1,3.18704E1,-6.3067354E-2,-5.8457267E-2,5.370147E-2],"split_indices":[2,0,1,0,0,0,0],"split_type":[0,0,0,0,0,0,0],"sum_hessian":[1.4481114E2,1.1108824E2,3.3722897E1,1.0390424E1,2.3332474E1,6.82186E0,3.568564E0],"tree_param":{"num_deleted":"0","num_feature":"3","num_nodes":"7","size_leaf_vector":"0"}},{"base_weights":[-1.216331E0,-1.2759645E0,-9.884507E-1,-3.633021E-1,-1.2411219E0,-1.1479032E0,1.05289E0],"categories":[],"categories_nodes":[],"categories_segments":[],"categories_sizes":[],"default_left":[1,0,1,1,0,0,0],"id":16,"left_children":[1,-1,3,5,-1,-1,-1],"loss_changes":[6.5385437E-1,0E0,4.867134E0,1.3547597E1,0E0,0E0,0E0],"parents":[2147483647,0,0,2,2,3,3],"right_children":[2,-1,4,6,-1,-1,-1],"split_conditions":[1.2083525E1,-6.379823E-2,4.466032E1,3.18704E1,-6.2056094E-2,-5.739516E-2,5.26445E-2],"split_indices":[2,0,1,0,0,0,0],"split_type":[0,0,0,0,0,0,0],"sum_hessian":[1.3992642E2,1.07258804E2,3.2667618E1,1.0104738E1,2.2562881E1,6.6242204E0,3.4805176E0],"tree_param":{"num_deleted":"0","num_feature":"3","num_nodes":"7","size_leaf_vector":"0"}},{"base_weights":[-1.1986281E0,-1.2579117E0,-9.7202885E-1,-3.549486E-1,-1.2222463E0,-1.1278186E0,1.0327663E0],"categories":[],"categories_nodes":[],"categories_segments":[],"categories_sizes":[],"default_left":[1,0,1,1,0,0,0],"id":17,"left_children":[1,-1,3,5,-1,-1,-1],"loss_changes":[6.0546875E-1,0E0,4.602991E0,1.2770022E1,0E0,0E0,0E0],"parents":[2147483647,0,0,2,2,3,3],"right_children":[2,-1,4,6,-1,-1,-1],"split_conditions":[1.2083525E1,-6.289559E-2,4.466032E1,3.18704E1,-6.1112314E-2,-5.639093E-2,5.1638316E-2],"split_indices":[2,0,1,0,0,0,0],"split_type":[0,0,0,0,0,0,0],"sum_hessian":[1.3508969E2,1.03468636E2,3.1621058E1,9.820511E0,2.1800547E1,6.4278736E0,3.3926377E0],"tree_param":{"num_deleted":"0","num_feature":"3","num_nodes":"7","size_leaf_vector":"0"}},{"base_weights":[-1.1821604E0,-1.241161E0,-9.565818E-1,-3.4697434E-1,-1.2045819E0,-1.1087736E0,1.013563E0],"categories":[],"categories_nodes":[],"categories_segments":[],"categories_sizes":[],"default_left":[1,0,1,1,0,0,0],"id":18,"left_children":[1,-1,3,5,-1,-1,-1],"loss_changes":[5.604553E-1,0E0,4.3574066E0,1.2046738E1,0E0,0E0,0E0],"parents":[2147483647,0,0,2,2,3,3],"right_children":[2,-1,4,6,-1,-1,-1],"split_conditions":[1.2083525E1,-6.205805E-2,4.466032E1,3.18704E1,-6.0229093E-2,-5.543868E-2,5.0678153E-2],"split_indices":[2,0,1,0,0,0,0],"split_type":[0,0,0,0,0,0,0],"sum_hessian":[1.3031676E2,9.973006E1,3.05867E1,9.538723E0,2.1047977E1,6.2334847E0,3.3052378E0],"tree_param":{"num_deleted":"0","num_feature":"3","num_nodes":"7","size_leaf_vector":"0"}},{"base_weights":[-1.1668082E0,-1.2255868E0,-9.420116E-1,-3.3934185E-1,-1.1880075E0,-1.0906634E0,9.951958E-1],"categories":[],"categories_nodes":[],"categories_segments":[],"categories_sizes":[],"default_left":[1,0,1,1,0,0,0],"id":19,"left_children":[1,-1,3,5,-1,-1,-1],"loss_changes":[5.185547E-1,0E0,4.12862E0,1.1372993E1,0E0,0E0,0E0],"parents":[2147483647,0,0,2,2,3,3],"right_children":[2,-1,4,6,-1,-1,-1],"split_conditions":[1.2083525E1,-6.1279338E-2,4.466032E1,3.18704E1,-5.9400376E-2,-5.4533172E-2,4.975979E-2],"split_indices":[2,0,1,0,0,0,0],"split_type":[0,0,0,0,0,0,0],"sum_hessian":[1.2562086E2,9.605337E1,2.956749E1,9.260206E0,2.0307283E1,6.0416193E0,3.2185867E0],"tree_param":{"num_deleted":"0","num_feature":"3","num_nodes":"7","size_leaf_vector":"0"}},{"base_weights":[-1.1524657E0,-1.2110788E0,-9.282314E-1,-3.3201826E-1,-1.1724151E0,-1.0733957E0,9.7758925E-1],"categories":[],"categories_nodes":[],"categories_segments":[],"categories_sizes":[],"default_left":[1,0,1,1,0,0,0],"id":20,"left_children":[1,-1,3,5,-1,-1,-1],"loss_changes":[4.7946167E-1,0E0,3.9151058E0,1.0744563E1,0E0,0E0,0E0],"parents":[2147483647,0,0,2,2,3,3],"right_children":[2,-1,4,6,-1,-1,-1],"split_conditions":[1.2083525E1,-6.055394E-2,4.466032E1,3.18704E1,-5.862076E-2,-5.3669788E-2,4.8879463E-2],"split_indices":[2,0,1,0,0,0,0],"split_type":[0,0,0,0,0,0,0],"sum_hessian":[1.2101307E2,9.2447174E1,2.8565897E1,8.985671E0,1.9580225E1,5.8527555E0,3.1329155E0],"tree_param":{"num_deleted":"0","num_feature":"3","num_nodes":"7","size_leaf_vector":"0"}},{"base_weights":[-1.1390395E0,-1.1975392E0,-9.1516423E-1,-3.249746E-1,-1.1577095E0,-1.056888E0,9.606764E-1],"categories":[],"categories_nodes":[],"categories_segments":[],"categories_sizes":[],"default_left":[1,0,1,1,0,0,0],"id":21,"left_children":[1,-1,3,5,-1,-1,-1],"loss_changes":[4.429474E-1,0E0,3.7155056E0,1.015767E1,0E0,0E0,0E0],"parents":[2147483647,0,0,2,2,3,3],"right_children":[2,-1,4,6,-1,-1,-1],"split_conditions":[1.2083525E1,-5.987696E-2,4.466032E1,3.18704E1,-5.7885475E-2,-5.28444E-2,4.803382E-2],"split_indices":[2,0,1,0,0,0,0],"split_type":[0,0,0,0,0,0,0],"sum_hessian":[1.16502426E2,8.8918465E1,2.7583965E1,8.715714E0,1.886825E1,5.6672935E0,3.0484204E0],"tree_param":{"num_deleted":"0","num_feature":"3","num_nodes":"7","size_leaf_vector":"0"}},{"base_weights":[-1.1264459E0,-1.1848806E0,-9.0274113E-1,-3.181849E-1,-1.1438048E0,-1.0410668E0,9.443979E-1],"categories":[],"categories_nodes":[],"categories_segments":[],"categories_sizes":[],"default_left":[1,0,1,1,0,0,0],"id":22,"left_children":[1,-1,3,5,-1,-1,-1],"loss_changes":[4.087677E-1,0E0,3.5286121E0,9.608938E0,0E0,0E0,0E0],"parents":[2147483647,0,0,2,2,3,3],"right_children":[2,-1,4,6,-1,-1,-1],"split_conditions":[1.2083525E1,-5.9244033E-2,4.466032E1,3.18704E1,-5.719024E-2,-5.205334E-2,4.72199E-2],"split_indices":[2,0,1,0,0,0,0],"split_type":[0,0,0,0,0,0,0],"sum_hessian":[1.12096306E2,8.547294E1,2.6623365E1,8.450832E0,1.8172533E1,5.4855633E0,2.965269E0],"tree_param":{"num_deleted":"0","num_feature":"3","num_nodes":"7","size_leaf_vector":"0"}},{"base_weights":[-1.1146106E0,-1.1730258E0,-8.909008E-1,-3.116265E-1,-1.1306248E0,-1.0258665E0,9.287003E-1],"categories":[],"categories_nodes":[],"categories_segments":[],"categories_sizes":[],"default_left":[1,0,1,1,0,0,0],"id":23,"left_children":[1,-1,3,5,-1,-1,-1],"loss_changes":[3.7675476E-1,0E0,3.353365E0,9.095331E0,0E0,0E0,0E0],"parents":[2147483647,0,0,2,2,3,3],"right_children":[2,-1,4,6,-1,-1,-1],"split_conditions":[1.2083525E1,-5.8651295E-2,4.466032E1,3.18704E1,-5.653124E-2,-5.1293325E-2,4.6435017E-2],"split_indices":[2,0,1,0,0,0,0],"split_type":[0,0,0,0,0,0,0],"sum_hessian":[1.0780049E2,8.211504E1,2.5685448E1,8.191432E0,1.7494017E1,5.3078322E0,2.8835995E0],"tree_param":{"num_deleted":"0","num_feature":"3","num_nodes":"7","size_leaf_vector":"0"}},{"base_weights":[-1.1034669E0,-1.1619049E0,-8.7958807E-1,-3.0527884E-1,-1.1181009E0,-1.0112287E0,9.1353637E-1],"categories":[],"categories_nodes":[],"categories_segments":[],"categories_sizes":[],"default_left":[1,0,1,1,0,0,0],"id":24,"left_children":[1,-1,3,5,-1,-1,-1],"loss_changes":[3.4674835E-1,0E0,3.188818E0,8.614115E0,0E0,0E0,0E0],"parents":[2147483647,0,0,2,2,3,3],"right_children":[2,-1,4,6,-1,-1,-1],"split_conditions":[1.2083525E1,-5.8095247E-2,4.466032E1,3.18704E1,-5.5905044E-2,-5.0561436E-2,4.567682E-2],"split_indices":[2,0,1,0,0,0,0],"split_type":[0,0,0,0,0,0,0],"sum_hessian":[1.0361948E2,7.884821E1,2.4771261E1,7.9378433E0,1.6833418E1,5.1343155E0,2.803528E0],"tree_param":{"num_deleted":"0","num_feature":"3","num_nodes":"7","size_leaf_vector":"0"}},{"base_weights":[-1.0929548E0,-1.1514555E0,-8.6875325E-1,-2.9912397E-1,-1.1061708E0,-9.9710053E-1,8.9886314E-1],"categories":[],"categories_nodes":[],"categories_segments":[],"categories_sizes":[],"default_left":[1,0,1,1,0,0,0],"id":25,"left_children":[1,-1,3,5,-1,-1,-1],"loss_changes":[3.185501E-1,0E0,3.0341034E0,8.162819E0,0E0,0E0,0E0],"parents":[2147483647,0,0,2,2,3,3],"right_children":[2,-1,4,6,-1,-1,-1],"split_conditions":[1.2083525E1,-5.757278E-2,4.466032E1,3.18704E1,-5.530854E-2,-4.9855027E-2,4.4943158E-2],"split_indices":[2,0,1,0,0,0,0],"split_type":[0,0,0,0,0,0,0],"sum_hessian":[9.955658E1,7.567498E1,2.3881601E1,7.6903243E0,1.6191278E1,4.9651775E0,2.725147E0],"tree_param":{"num_deleted":"0","num_feature":"3","num_nodes":"7","size_leaf_vector":"0"}},{"base_weights":[-1.0830202E0,-1.1416211E0,-8.583518E-1,-2.9314616E-1,-1.0947784E0,-9.834349E-1,8.8464236E-1],"categories":[],"categories_nodes":[],"categories_segments":[],"categories_sizes":[],"default_left":[1,0,1,1,0,0,0],"id":26,"left_children":[1,-1,3,5,-1,-1,-1],"loss_changes":[2.9208374E-1,0E0,2.8884602E0,7.7392035E0,0E0,0E0,0E0],"parents":[2147483647,0,0,2,2,3,3],"right_children":[2,-1,4,6,-1,-1,-1],"split_conditions":[1.2083525E1,-5.7081055E-2,4.466032E1,3.18704E1,-5.473892E-2,-4.9171746E-2,4.423212E-2],"split_indices":[2,0,1,0,0,0,0],"split_type":[0,0,0,0,0,0,0],"sum_hessian":[9.56141E1,7.2597046E1,2.301705E1,7.449072E0,1.5567978E1,4.800543E0,2.6485288E0],"tree_param":{"num_deleted":"0","num_feature":"3","num_nodes":"7","size_leaf_vector":"0"}},{"base_weights":[-1.0736141E0,-1.1323508E0,-8.483432E-1,-2.8733066E-1,-1.0838732E0,-9.7018915E-1,8.7084013E-1],"categories":[],"categories_nodes":[],"categories_segments":[],"categories_sizes":[],"default_left":[1,0,1,1,0,0,0],"id":27,"left_children":[1,-1,3,5,-1,-1,-1],"loss_changes":[2.6719666E-1,0E0,2.7511997E0,7.341242E0,0E0,0E0,0E0],"parents":[2147483647,0,0,2,2,3,3],"right_children":[2,-1,4,6,-1,-1,-1],"split_conditions":[1.2083525E1,-5.661754E-2,4.466032E1,3.18704E1,-5.4193657E-2,-4.850946E-2,4.354201E-2],"split_indices":[2,0,1,0,0,0,0],"split_type":[0,0,0,0,0,0,0],"sum_hessian":[9.1793434E1,6.961544E1,2.217799E1,7.2142305E0,1.4963758E1,4.640498E0,2.5737326E0],"tree_param":{"num_deleted":"0","num_feature":"3","num_nodes":"7","size_leaf_vector":"0"}},{"base_weights":[-1.0646921E0,-1.1235982E0,-8.3869076E-1,-2.816648E-1,-1.0734085E0,-9.573251E-1,8.5742563E-1],"categories":[],"categories_nodes":[],"categories_segments":[],"categories_sizes":[],"default_left":[1,0,1,1,0,0,0],"id":28,"left_children":[1,-1,3,5,-1,-1,-1],"loss_changes":[2.4376678E-1,0E0,2.6216984E0,6.9670863E0,0E0,0E0,0E0],"parents":[2147483647,0,0,2,2,3,3],"right_children":[2,-1,4,6,-1,-1,-1],"split_conditions":[1.2083525E1,-5.617991E-2,4.466032E1,3.18704E1,-5.3670425E-2,-4.7866255E-2,4.287128E-2],"split_indices":[2,0,1,0,0,0,0],"split_type":[0,0,0,0,0,0,0],"sum_hessian":[8.809527E1,6.673064E1,2.136463E1,6.985897E0,1.4378733E1,4.4850974E0,2.5008E0],"tree_param":{"num_deleted":"0","num_feature":"3","num_nodes":"7","size_leaf_vector":"0"}},{"base_weights":[-1.0562139E0,-1.1153214E0,-8.293613E-1,-2.7613747E-1,-1.0633422E0,-9.4480854E-1,8.443711E-1],"categories":[],"categories_nodes":[],"categories_segments":[],"categories_sizes":[],"default_left":[1,0,1,1,0,0,0],"id":29,"left_children":[1,-1,3,5,-1,-1,-1],"loss_changes":[2.2169495E-1,0E0,2.499384E0,6.615052E0,0E0,0E0,0E0],"parents":[2147483647,0,0,2,2,3,3],"right_children":[2,-1,4,6,-1,-1,-1],"split_conditions":[1.2083525E1,-5.5766072E-2,4.466032E1,3.18704E1,-5.3167112E-2,-4.724043E-2,4.2218555E-2],"split_indices":[2,0,1,0,0,0,0],"split_type":[0,0,0,0,0,0,0],"sum_hessian":[8.451955E1,6.3942513E1,2.0577038E1,6.7641253E0,1.3812912E1,4.334367E0,2.4297588E0],"tree_param":{"num_deleted":"0","num_feature":"3","num_nodes":"7","size_leaf_vector":"0"}},{"base_weights":[-1.0481423E0,-1.1074817E0,-8.2032484E-1,-2.7073872E-1,-1.0536357E0,-9.3260837E-1,8.316516E-1],"categories":[],"categories_nodes":[],"categories_segments":[],"categories_sizes":[],"default_left":[1,0,1,1,0,0,0],"id":30,"left_children":[1,-1,3,5,-1,-1,-1],"loss_changes":[2.009201E-1,0E0,2.383751E0,6.2835994E0,0E0,0E0,0E0],"parents":[2147483647,0,0,2,2,3,3],"right_children":[2,-1,4,6,-1,-1,-1],"split_conditions":[1.2083525E1,-5.5374086E-2,4.466032E1,3.18704E1,-5.2681785E-2,-4.663042E-2,4.158258E-2],"split_indices":[2,0,1,0,0,0,0],"split_type":[0,0,0,0,0,0,0],"sum_hessian":[8.106572E1,6.1250565E1,1.9815151E1,6.548933E0,1.3266218E1,4.1883073E0,2.360626E0],"tree_param":{"num_deleted":"0","num_feature":"3","num_nodes":"7","size_leaf_vector":"0"}},{"base_weights":[-1.0404437E0,-1.100044E0,-8.115537E-1,-2.654594E-1,-1.0442537E0,-9.206968E-1,8.1924534E-1],"categories":[],"categories_nodes":[],"categories_segments":[],"categories_sizes":[],"default_left":[1,0,1,1,0,0,0],"id":31,"left_children":[1,-1,3,5,-1,-1,-1],"loss_changes":[1.8132019E-1,0E0,2.2743292E0,5.9713216E0,0E0,0E0,0E0],"parents":[2147483647,0,0,2,2,3,3],"right_children":[2,-1,4,6,-1,-1,-1],"split_conditions":[1.2083525E1,-5.50022E-2,4.466032E1,3.18704E1,-5.2212685E-2,-4.603484E-2,4.0962268E-2],"split_indices":[2,0,1,0,0,0,0],"split_type":[0,0,0,0,0,0,0],"sum_hessian":[7.77327E1,5.8653893E1,1.9078804E1,6.3403087E0,1.2738495E1,4.0468993E0,2.2934093E0],"tree_param":{"num_deleted":"0","num_feature":"3","num_nodes":"7","size_leaf_vector":"0"}},{"base_weights":[-1.0330873E0,-1.0929762E0,-8.030229E-1,-2.602917E-1,-1.0351635E0,-9.090486E-1,8.0713195E-1],"categories":[],"categories_nodes":[],"categories_segments":[],"categories_sizes":[],"default_left":[1,0,1,1,0,0,0],"id":32,"left_children":[1,-1,3,5,-1,-1,-1],"loss_changes":[1.628418E-1,0E0,2.1706944E0,5.6769238E0,0E0,0E0,0E0],"parents":[2147483647,0,0,2,2,3,3],"right_children":[2,-1,4,6,-1,-1,-1],"split_conditions":[1.2083525E1,-5.4648813E-2,4.466032E1,3.18704E1,-5.1758178E-2,-4.545243E-2,4.03566E-2],"split_indices":[2,0,1,0,0,0,0],"split_type":[0,0,0,0,0,0,0],"sum_hessian":[7.4519005E1,5.6151276E1,1.8367727E1,6.138213E0,1.2229515E1,3.9101064E0,2.2281067E0],"tree_param":{"num_deleted":"0","num_feature":"3","num_nodes":"7","size_leaf_vector":"0"}},{"base_weights":[-1.0260444E0,-1.0862486E0,-7.9470956E-1,-2.5522855E-1,-1.0263354E0,-8.976415E-1,7.952935E-1],"categories":[],"categories_nodes":[],"categories_segments":[],"categories_sizes":[],"default_left":[1,0,1,1,0,0,0],"id":33,"left_children":[1,-1,3,5,-1,-1,-1],"loss_changes":[1.4540863E-1,0E0,2.0724583E0,5.399222E0,0E0,0E0,0E0],"parents":[2147483647,0,0,2,2,3,3],"right_children":[2,-1,4,6,-1,-1,-1],"split_conditions":[1.2083525E1,-5.4312434E-2,4.466032E1,3.18704E1,-5.1316768E-2,-4.4882074E-2,3.9764676E-2],"split_indices":[2,0,1,0,0,0,0],"split_type":[0,0,0,0,0,0,0],"sum_hessian":[7.142281E1,5.374123E1,1.7681583E1,5.9425817E0,1.1739001E1,3.7778733E0,2.1647084E0],"tree_param":{"num_deleted":"0","num_feature":"3","num_nodes":"7","size_leaf_vector":"0"}},{"base_weights":[-1.019289E0,-1.0798339E0,-7.865931E-1,-2.5026417E-1,-1.0177417E0,-8.8645506E-1,7.8371376E-1],"categories":[],"categories_nodes":[],"categories_segments":[],"categories_sizes":[],"default_left":[1,0,1,1,0,0,0],"id":34,"left_children":[1,-1,3,5,-1,-1,-1],"loss_changes":[1.289444E-1,0E0,1.9792595E0,5.1371183E0,0E0,0E0,0E0],"parents":[2147483647,0,0,2,2,3,3],"right_children":[2,-1,4,6,-1,-1,-1],"split_conditions":[1.2083525E1,-5.3991694E-2,4.466032E1,3.18704E1,-5.0887085E-2,-4.4322755E-2,3.9185688E-2],"split_indices":[2,0,1,0,0,0,0],"split_type":[0,0,0,0,0,0,0],"sum_hessian":[6.8442E1,5.1422043E1,1.701996E1,5.753332E0,1.1266628E1,3.6501348E0,2.1031973E0],"tree_param":{"num_deleted":"0","num_feature":"3","num_nodes":"7","size_leaf_vector":"0"}},{"base_weights":[-1.0127969E0,-1.0737065E0,-7.7865416E-1,-2.4539253E-1,-1.0093571E0,-8.7547135E-1,7.7237856E-1],"categories":[],"categories_nodes":[],"categories_segments":[],"categories_sizes":[],"default_left":[1,0,1,1,0,0,0],"id":35,"left_children":[1,-1,3,5,-1,-1,-1],"loss_changes":[1.1340332E-1,0E0,1.8907824E0,4.8896146E0,0E0,0E0,0E0],"parents":[2147483647,0,0,2,2,3,3],"right_children":[2,-1,4,6,-1,-1,-1],"split_conditions":[1.2083525E1,-5.3685326E-2,4.466032E1,3.18704E1,-5.0467856E-2,-4.377357E-2,3.861893E-2],"split_indices":[2,0,1,0,0,0,0],"split_type":[0,0,0,0,0,0,0],"sum_hessian":[6.55742E1,4.9191803E1,1.6382399E1,5.5703673E0,1.0812032E1,3.5268133E0,2.0435543E0],"tree_param":{"num_deleted":"0","num_feature":"3","num_nodes":"7","size_leaf_vector":"0"}},{"base_weights":[-1.0065457E0,-1.0678433E0,-7.7087575E-1,-2.4060947E-1,-1.0011581E0,-8.646739E-1,7.612743E-1],"categories":[],"categories_nodes":[],"categories_segments":[],"categories_sizes":[],"default_left":[1,0,1,1,0,0,0],"id":36,"left_children":[1,-1,3,5,-1,-1,-1],"loss_changes":[9.8716736E-2,0E0,1.806716E0,4.655771E0,0E0,0E0,0E0],"parents":[2147483647,0,0,2,2,3,3],"right_children":[2,-1,4,6,-1,-1,-1],"split_conditions":[1.2083525E1,-5.3392168E-2,4.466032E1,3.18704E1,-5.0057907E-2,-4.3233696E-2,3.8063716E-2],"split_indices":[2,0,1,0,0,0,0],"split_type":[0,0,0,0,0,0,0],"sum_hessian":[6.2816864E1,4.704848E1,1.5768384E1,5.3935714E0,1.0374813E1,3.4078214E0,1.9857497E0],"tree_param":{"num_deleted":"0","num_feature":"3","num_nodes":"7","size_leaf_vector":"0"}},{"base_weights":[-1.0005146E0,-1.0622224E0,-7.6324195E-1,-9.981767E-1,-2.4263817E-1,7.503896E-1,-8.457234E-1],"categories":[],"categories_nodes":[],"categories_segments":[],"categories_sizes":[],"default_left":[1,0,1,0,1,0,0],"id":37,"left_children":[1,-1,3,-1,5,-1,-1],"loss_changes":[8.485031E-2,0E0,1.7364244E0,0E0,4.438411E0,0E0,0E0],"parents":[2147483647,0,0,2,2,4,4],"right_children":[2,-1,4,-1,6,-1,-1],"split_conditions":[1.2083525E1,-5.3111117E-2,3.1964443E1,-4.9908835E-2,4.490789E1,3.751948E-2,-4.228617E-2],"split_indices":[2,0,0,0,1,0,0],"split_type":[0,0,0,0,0,0,0],"sum_hessian":[6.016728E1,4.4989906E1,1.5177373E1,9.825871E0,5.3515015E0,1.929755E0,3.4217463E0],"tree_param":{"num_deleted":"0","num_feature":"3","num_nodes":"7","size_leaf_vector":"0"}},{"base_weights":[-9.946713E-1,-1.0568235E0,-7.556979E-1,-2.2821006E-1,-9.856085E-1,-8.4181803E-1,7.397142E-1],"categories":[],"categories_nodes":[],"categories_segments":[],"categories_sizes":[],"default_left":[1,0,1,1,0,0,0],"id":38,"left_children":[1,-1,3,5,-1,-1,-1],"loss_changes":[7.207489E-2,0E0,1.6681023E0,4.2097697E0,0E0,0E0,0E0],"parents":[2147483647,0,0,2,2,3,3],"right_children":[2,-1,4,6,-1,-1,-1],"split_conditions":[1.2083525E1,-5.2841175E-2,4.466032E1,3.18704E1,-4.9280427E-2,-4.2090904E-2,3.698571E-2],"split_indices":[2,0,1,0,0,0,0],"split_type":[0,0,0,0,0,0,0],"sum_hessian":[5.7623196E1,4.3013817E1,1.4609377E1,5.0395823E0,9.569796E0,3.1640453E0,1.8755366E0],"tree_param":{"num_deleted":"0","num_feature":"3","num_nodes":"7","size_leaf_vector":"0"}},{"base_weights":[-9.8902404E-1,-1.0516278E0,-7.483103E-1,-9.82327E-1,-2.3016793E-1,7.292381E-1,-8.245805E-1],"categories":[],"categories_nodes":[],"categories_segments":[],"categories_sizes":[],"default_left":[1,0,1,0,1,0,0],"id":39,"left_children":[1,-1,3,-1,5,-1,-1],"loss_changes":[5.9669495E-2,0E0,1.6002922E0,0E0,4.018659E0,0E0,0E0],"parents":[2147483647,0,0,2,2,4,4],"right_children":[2,-1,4,-1,6,-1,-1],"split_conditions":[1.2083525E1,-5.258139E-2,3.1964443E1,-4.911635E-2,4.490789E1,3.6461905E-2,-4.1229025E-2],"split_indices":[2,0,0,0,1,0,0],"split_type":[0,0,0,0,0,0,0],"sum_hessian":[5.5180416E1,4.111788E1,1.4062533E1,9.070169E0,4.9923644E0,1.8230562E0,3.1693082E0],"tree_param":{"num_deleted":"0","num_feature":"3","num_nodes":"7","size_leaf_vector":"0"}},{"base_weights":[-9.8353046E-1,-1.0466174E0,-7.4099034E-1,-2.1611567E-1,-9.7056884E-1,-8.1952274E-1,7.1895313E-1],"categories":[],"categories_nodes":[],"categories_segments":[],"categories_sizes":[],"default_left":[1,0,1,1,0,0,0],"id":40,"left_children":[1,-1,3,5,-1,-1,-1],"loss_changes":[4.8233032E-2,0E0,1.542006E0,3.8110301E0,0E0,0E0,0E0],"parents":[2147483647,0,0,2,2,3,3],"right_children":[2,-1,4,6,-1,-1,-1],"split_conditions":[1.2083525E1,-5.233087E-2,4.466032E1,3.18704E1,-4.8528444E-2,-4.0976137E-2,3.5947658E-2],"split_indices":[2,0,1,0,0,0,0],"split_type":[0,0,0,0,0,0,0],"sum_hessian":[5.2837185E1,3.9299732E1,1.3537451E1,4.710168E0,8.827283E0,2.937893E0,1.7722752E0],"tree_param":{"num_deleted":"0","num_feature":"3","num_nodes":"7","size_leaf_vector":"0"}},{"base_weights":[-9.781999E-1,-1.0370425E0,-7.199581E-1,-9.580773E-1,-1.7888133E-1,6.917419E-1,-7.7282554E-1],"categories":[],"categories_nodes":[],"categories_segments":[],"categories_sizes":[],"default_left":[1,0,1,0,1,0,0],"id":41,"left_children":[1,-1,3,-1,5,-1,-1],"loss_changes":[3.730011E-2,0E0,1.4834719E0,0E0,3.2000995E0,0E0,0E0],"parents":[2147483647,0,0,2,2,4,4],"right_children":[2,-1,4,-1,6,-1,-1],"split_conditions":[1.2360492E1,-5.1852126E-2,3.1964443E1,-4.7903866E-2,4.490789E1,3.4587096E-2,-3.8641278E-2],"split_indices":[2,0,0,0,1,0,0],"split_type":[0,0,0,0,0,0,0],"sum_hessian":[5.058927E1,3.87451E1,1.1844173E1,7.689473E0,4.1547E0,1.6181312E0,2.5365686E0],"tree_param":{"num_deleted":"0","num_feature":"3","num_nodes":"7","size_leaf_vector":"0"}},{"base_weights":[-9.726475E-1,-1.0371085E0,-7.25457E-1,-2.0214725E-1,-9.559088E-1,-7.977538E-1,7.007633E-1],"categories":[],"categories_nodes":[],"categories_segments":[],"categories_sizes":[],"default_left":[1,0,1,1,0,0,0],"id":42,"left_children":[1,-1,3,5,-1,-1,-1],"loss_changes":[3.5575867E-2,0E0,1.4415846E0,3.4698923E0,0E0,0E0,0E0],"parents":[2147483647,0,0,2,2,3,3],"right_children":[2,-1,4,6,-1,-1,-1],"split_conditions":[1.2083525E1,-5.1855426E-2,4.466032E1,3.18704E1,-4.779544E-2,-3.9887693E-2,3.5038166E-2],"split_indices":[2,0,1,0,0,0,0],"split_type":[0,0,0,0,0,0,0],"sum_hessian":[4.845053E1,3.589455E1,1.2555981E1,4.4127316E0,8.143249E0,2.7290037E0,1.683728E0],"tree_param":{"num_deleted":"0","num_feature":"3","num_nodes":"7","size_leaf_vector":"0"}},{"base_weights":[-9.6757394E-1,-1.0325583E0,-7.1843356E-1,-9.520448E-1,-2.0377812E-1,6.90976E-1,-7.83166E-1],"categories":[],"categories_nodes":[],"categories_segments":[],"categories_sizes":[],"default_left":[1,0,1,0,1,0,0],"id":43,"left_children":[1,-1,3,-1,5,-1,-1],"loss_changes":[2.5341034E-2,0E0,1.3797693E0,0E0,3.3193078E0,0E0,0E0],"parents":[2147483647,0,0,2,2,4,4],"right_children":[2,-1,4,-1,6,-1,-1],"split_conditions":[1.2083525E1,-5.1627915E-2,3.1964443E1,-4.760224E-2,4.490789E1,3.45488E-2,-3.91583E-2],"split_indices":[2,0,0,0,1,0,0],"split_type":[0,0,0,0,0,0,0],"sum_hessian":[4.638471E1,3.4294933E1,1.2089776E1,7.7307734E0,4.3590026E0,1.6375389E0,2.7214637E0],"tree_param":{"num_deleted":"0","num_feature":"3","num_nodes":"7","size_leaf_vector":"0"}},{"base_weights":[-9.625985E-1,-1.0281328E0,-7.114453E-1,-1.9069748E-1,-9.415338E-1,-7.763316E-1,6.813545E-1],"categories":[],"categories_nodes":[],"categories_segments":[],"categories_sizes":[],"default_left":[1,0,1,1,0,0,0],"id":44,"left_children":[1,-1,3,5,-1,-1,-1],"loss_changes":[1.5892029E-2,0E0,1.3352795E0,3.1479747E0,0E0,0E0,0E0],"parents":[2147483647,0,0,2,2,3,3],"right_children":[2,-1,4,6,-1,-1,-1],"split_conditions":[1.2083525E1,-5.140664E-2,4.466032E1,3.18704E1,-4.707669E-2,-3.8816582E-2,3.4067728E-2],"split_indices":[2,0,1,0,0,0,0],"split_type":[0,0,0,0,0,0,0],"sum_hessian":[4.4406166E1,3.2763435E1,1.1642729E1,4.128256E0,7.514473E0,2.5353703E0,1.5928855E0],"tree_param":{"num_deleted":"0","num_feature":"3","num_nodes":"7","size_leaf_vector":"0"}},{"base_weights":[-9.5773196E-1,-1.023819E0,-7.045477E-1,-1.868285E-1,-9.341945E-1,-7.668006E-1,6.718942E-1],"categories":[],"categories_nodes":[],"categories_segments":[],"categories_sizes":[],"default_left":[1,0,1,1,0,0,0],"id":45,"left_children":[1,-1,3,5,-1,-1,-1],"loss_changes":[6.702423E-3,0E0,1.2775226E0,3.0067732E0,0E0,0E0,0E0],"parents":[2147483647,0,0,2,2,3,3],"right_children":[2,-1,4,6,-1,-1,-1],"split_conditions":[1.2083525E1,-5.119095E-2,4.466032E1,3.18704E1,-4.6709727E-2,-3.834003E-2,3.359471E-2],"split_indices":[2,0,1,0,0,0,0],"split_type":[0,0,0,0,0,0,0],"sum_hessian":[4.2510853E1,3.1297668E1,1.1213184E1,4.002788E0,7.2103963E0,2.4530616E0,1.5497264E0],"tree_param":{"num_deleted":"0","num_feature":"3","num_nodes":"7","size_leaf_vector":"0"}},{"base_weights":[-9.529517E-1],"categories":[],"categories_nodes":[],"categories_segments":[],"categories_sizes":[],"default_left":[0],"id":46,"left_children":[-1],"loss_changes":[0E0],"parents":[2147483647],"right_children":[-1],"split_conditions":[-4.7647588E-2],"split_indices":[0],"split_type":[0],"sum_hessian":[4.0696335E1],"tree_param":{"num_deleted":"0","num_feature":"3","num_nodes":"1","size_leaf_vector":"0"}},{"base_weights":[-9.430432E-1,-1.0157449E0,-6.731532E-1,-9.226806E-1,-1.4823699E-1,6.757933E-1,-7.4040437E-1],"categories":[],"categories_nodes":[],"categories_segments":[],"categories_sizes":[],"default_left":[1,0,1,0,1,0,0],"id":47,"left_children":[1,-1,3,-1,5,-1,-1],"loss_changes":[1.034317E-1,0E0,1.3666825E0,0E0,2.886402E0,0E0,0E0],"parents":[2147483647,0,0,2,2,4,4],"right_children":[2,-1,4,-1,6,-1,-1],"split_conditions":[1.2083525E1,-5.0787248E-2,3.1964443E1,-4.6134032E-2,4.490789E1,3.3789665E-2,-3.7020218E-2],"split_indices":[2,0,0,0,1,0,0],"split_type":[0,0,0,0,0,0,0],"sum_hessian":[3.9118374E1,2.8639925E1,1.0478448E1,6.5886564E0,3.8897917E0,1.5674238E0,2.322368E0],"tree_param":{"num_deleted":"0","num_feature":"3","num_nodes":"7","size_leaf_vector":"0"}},{"base_weights":[-9.383789E-1,-1.0116893E0,-6.665144E-1,-1.3970695E-1,-9.1261363E-1,-7.341862E-1,6.664251E-1],"categories":[],"categories_nodes":[],"categories_segments":[],"categories_sizes":[],"default_left":[1,0,1,1,0,0,0],"id":48,"left_children":[1,-1,3,5,-1,-1,-1],"loss_changes":[9.2041016E-2,0E0,1.3112445E0,2.7484841E0,0E0,0E0,0E0],"parents":[2147483647,0,0,2,2,3,3],"right_children":[2,-1,4,6,-1,-1,-1],"split_conditions":[1.2083525E1,-5.0584465E-2,4.466032E1,3.18704E1,-4.5630682E-2,-3.670931E-2,3.3321258E-2],"split_indices":[2,0,1,0,0,0,0],"split_type":[0,0,0,0,0,0,0],"sum_hessian":[3.7450916E1,2.7353518E1,1.00974E1,3.71425E0,6.38315E0,2.1891313E0,1.5251188E0],"tree_param":{"num_deleted":"0","num_feature":"3","num_nodes":"7","size_leaf_vector":"0"}},{"base_weights":[-9.337819E-1,-1.0077001E0,-6.599433E-1,-9.083157E-1,-1.3835672E-1,6.572111E-1,-7.205194E-1],"categories":[],"categories_nodes":[],"categories_segments":[],"categories_sizes":[],"default_left":[1,0,1,0,1,0,0],"id":49,"left_children":[1,-1,3,-1,5,-1,-1],"loss_changes":[8.098221E-2,0E0,1.2645788E0,0E0,2.6232302E0,0E0,0E0],"parents":[2147483647,0,0,2,2,4,4],"right_children":[2,-1,4,-1,6,-1,-1],"split_conditions":[1.2083525E1,-5.0385006E-2,3.1964443E1,-4.5415785E-2,4.490789E1,3.286056E-2,-3.602597E-2],"split_indices":[2,0,0,0,1,0,0],"split_type":[0,0,0,0,0,0,0],"sum_hessian":[3.585532E1,2.6123749E1,9.731571E0,6.0901003E0,3.6414707E0,1.484238E0,2.1572325E0],"tree_param":{"num_deleted":"0","num_feature":"3","num_nodes":"7","size_leaf_vector":"0"}},{"base_weights":[-9.292216E-1,-1.0037667E0,-6.533798E-1,-1.301576E-1,-8.98597E-1,-7.1375066E-1,6.481468E-1],"categories":[],"categories_nodes":[],"categories_segments":[],"categories_sizes":[],"default_left":[1,0,1,1,0,0,0],"id":50,"left_children":[1,-1,3,5,-1,-1,-1],"loss_changes":[7.062721E-2,0E0,1.2149725E0,2.498448E0,0E0,0E0,0E0],"parents":[2147483647,0,0,2,2,3,3],"right_children":[2,-1,4,6,-1,-1,-1],"split_conditions":[1.2083525E1,-5.0188333E-2,4.466032E1,3.18704E1,-4.492985E-2,-3.5687532E-2,3.240734E-2],"split_indices":[2,0,1,0,0,0,0],"split_type":[0,0,0,0,0,0,0],"sum_hessian":[3.4329567E1,2.4948433E1,9.381133E0,3.4821093E0,5.8990235E0,2.0373743E0,1.444735E0],"tree_param":{"num_deleted":"0","num_feature":"3","num_nodes":"7","size_leaf_vector":"0"}},{"base_weights":[-9.2471105E-1,-9.998796E-1,-6.468751E-1,-8.9401007E-1,-1.2875095E-1,6.392286E-1,-7.0083624E-1],"categories":[],"categories_nodes":[],"categories_segments":[],"categories_sizes":[],"default_left":[1,0,1,0,1,0,0],"id":51,"left_children":[1,-1,3,-1,5,-1,-1],"loss_changes":[6.056404E-2,0E0,1.1710954E0,0E0,2.386465E0,0E0,0E0],"parents":[2147483647,0,0,2,2,4,4],"right_children":[2,-1,4,-1,6,-1,-1],"split_conditions":[1.2083525E1,-4.999398E-2,3.1964443E1,-4.4700503E-2,4.490789E1,3.196143E-2,-3.5041813E-2],"split_indices":[2,0,0,0,1,0,0],"split_type":[0,0,0,0,0,0,0],"sum_hessian":[3.28702E1,2.382542E1,9.044781E0,5.6326456E0,3.412135E0,1.4065655E0,2.0055695E0],"tree_param":{"num_deleted":"0","num_feature":"3","num_nodes":"7","size_leaf_vector":"0"}},{"base_weights":[-9.2022115E-1,-9.960294E-1,-6.403732E-1,-1.2088186E-1,-8.845824E-1,-6.936122E-1,6.304543E-1],"categories":[],"categories_nodes":[],"categories_segments":[],"categories_sizes":[],"default_left":[1,0,1,1,0,0,0],"id":52,"left_children":[1,-1,3,5,-1,-1,-1],"loss_changes":[5.1122665E-2,0E0,1.1265306E0,2.2735689E0,0E0,0E0,0E0],"parents":[2147483647,0,0,2,2,3,3],"right_children":[2,-1,4,6,-1,-1,-1],"split_conditions":[1.2083525E1,-4.980147E-2,4.466032E1,3.18704E1,-4.422912E-2,-3.4680612E-2,3.1522717E-2],"split_indices":[2,0,1,0,0,0,0],"split_type":[0,0,0,0,0,0,0],"sum_hessian":[3.1475277E1,2.275262E1,8.722657E0,3.2673078E0,5.45535E0,1.8976164E0,1.3696913E0],"tree_param":{"num_deleted":"0","num_feature":"3","num_nodes":"7","size_leaf_vector":"0"}},{"base_weights":[-9.1576517E-1,-9.922071E-1,-6.3392234E-1,-8.797163E-1,-1.1942686E-1,6.2182003E-1,-6.813645E-1],"categories":[],"categories_nodes":[],"categories_segments":[],"categories_sizes":[],"default_left":[1,0,1,0,1,0,0],"id":53,"left_children":[1,-1,3,-1,5,-1,-1],"loss_changes":[4.1952133E-2,0E0,1.0853729E0,0E0,2.173291E0,0E0,0E0],"parents":[2147483647,0,0,2,2,4,4],"right_children":[2,-1,4,-1,6,-1,-1],"split_conditions":[1.2083525E1,-4.9610358E-2,3.1964443E1,-4.3985814E-2,4.490789E1,3.1091003E-2,-3.4068223E-2],"split_indices":[2,0,0,0,1,0,0],"split_type":[0,0,0,0,0,0,0],"sum_hessian":[3.0141546E1,2.1728006E1,8.413539E0,5.2131557E0,3.2003837E0,1.3340656E0,1.8663181E0],"tree_param":{"num_deleted":"0","num_feature":"3","num_nodes":"7","size_leaf_vector":"0"}},{"base_weights":[-9.11316E-1,-9.884042E-1,-6.274725E-1,-1.1188745E-1,-8.7053144E-1,-6.737724E-1,6.1332345E-1],"categories":[],"categories_nodes":[],"categories_segments":[],"categories_sizes":[],"default_left":[1,0,1,1,0,0,0],"id":54,"left_children":[1,-1,3,5,-1,-1,-1],"loss_changes":[3.3327103E-2,0E0,1.0451868E0,2.0711408E0,0E0,0E0,0E0],"parents":[2147483647,0,0,2,2,3,3],"right_children":[2,-1,4,6,-1,-1,-1],"split_conditions":[1.2083525E1,-4.942021E-2,4.466032E1,3.18704E1,-4.352657E-2,-3.368862E-2,3.0666173E-2],"split_indices":[2,0,1,0,0,0,0],"split_type":[0,0,0,0,0,0,0],"sum_hessian":[2.8867142E1,2.0749598E1,8.117543E0,3.0686169E0,5.0489264E0,1.7689692E0,1.2996476E0],"tree_param":{"num_deleted":"0","num_feature":"3","num_nodes":"7","size_leaf_vector":"0"}},{"base_weights":[-9.0688634E-1,-9.846122E-1,-6.210676E-1,-8.653976E-1,-1.1039477E-1,6.049624E-1,-6.621201E-1],"categories":[],"categories_nodes":[],"categories_segments":[],"categories_sizes":[],"default_left":[1,0,1,0,1,0,0],"id":55,"left_children":[1,-1,3,-1,5,-1,-1],"loss_changes":[2.494049E-2,0E0,1.0066485E0,0E0,1.9812063E0,0E0,0E0],"parents":[2147483647,0,0,2,2,4,4],"right_children":[2,-1,4,-1,6,-1,-1],"split_conditions":[1.2083525E1,-4.9230613E-2,3.1964443E1,-4.326988E-2,4.490789E1,3.024812E-2,-3.3106007E-2],"split_indices":[2,0,0,0,1,0,0],"split_type":[0,0,0,0,0,0,0],"sum_hessian":[2.7649029E1,1.9815496E1,7.833534E0,4.8286543E0,3.0048792E0,1.2663982E0,1.738481E0],"tree_param":{"num_deleted":"0","num_feature":"3","num_nodes":"7","size_leaf_vector":"0"}},{"base_weights":[-9.0245134E-1,-9.8082346E-1,-6.1466336E-1,-1.0318353E-1,-8.5641545E-1,-6.542399E-1,5.967338E-1],"categories":[],"categories_nodes":[],"categories_segments":[],"categories_sizes":[],"default_left":[1,0,1,1,0,0,0],"id":56,"left_children":[1,-1,3,5,-1,-1,-1],"loss_changes":[1.7044067E-2,0E0,9.702852E-1,1.8887737E0,0E0,0E0,0E0],"parents":[2147483647,0,0,2,2,3,3],"right_children":[2,-1,4,6,-1,-1,-1],"split_conditions":[1.2083525E1,-4.9041174E-2,4.466032E1,3.18704E1,-4.2820774E-2,-3.2711994E-2,2.983669E-2],"split_indices":[2,0,1,0,0,0,0],"split_type":[0,0,0,0,0,0,0],"sum_hessian":[2.6485441E1,1.892384E1,7.561601E0,2.8848596E0,4.6767416E0,1.6505867E0,1.2342728E0],"tree_param":{"num_deleted":"0","num_feature":"3","num_nodes":"7","size_leaf_vector":"0"}},{"base_weights":[-8.980235E-1,-9.770301E-1,-6.083003E-1,-8.510274E-1,-1.0166527E-1,5.886361E-1,-6.431241E-1],"categories":[],"categories_nodes":[],"categories_segments":[],"categories_sizes":[],"default_left":[1,0,1,0,1,0,0],"id":57,"left_children":[1,-1,3,-1,5,-1,-1],"loss_changes":[9.365082E-3,0E0,9.342499E-1,0E0,1.8079965E0,0E0,0E0],"parents":[2147483647,0,0,2,2,4,4],"right_children":[2,-1,4,-1,6,-1,-1],"split_conditions":[1.2083525E1,-4.8851505E-2,3.1964443E1,-4.2551372E-2,4.490789E1,2.9431805E-2,-3.2156207E-2],"split_indices":[2,0,0,0,1,0,0],"split_type":[0,0,0,0,0,0,0],"sum_hessian":[2.5373533E1,1.8072838E1,7.3006945E0,4.476334E0,2.8243604E0,1.2032356E0,1.6211249E0],"tree_param":{"num_deleted":"0","num_feature":"3","num_nodes":"7","size_leaf_vector":"0"}},{"base_weights":[-8.935791E-1,-9.7322476E-1,-6.019381E-1,-9.477961E-2,-8.422151E-1,-6.350286E-1,5.806672E-1],"categories":[],"categories_nodes":[],"categories_segments":[],"categories_sizes":[],"default_left":[1,0,1,1,0,0,0],"id":58,"left_children":[1,-1,3,5,-1,-1,-1],"loss_changes":[2.1152496E-3,0E0,9.012451E-1,1.7243478E0,0E0,0E0,0E0],"parents":[2147483647,0,0,2,2,3,3],"right_children":[2,-1,4,6,-1,-1,-1],"split_conditions":[1.2083525E1,-4.866124E-2,4.466032E1,3.18704E1,-4.2110756E-2,-3.175143E-2,2.9033361E-2],"split_indices":[2,0,1,0,0,0,0],"split_type":[0,0,0,0,0,0,0],"sum_hessian":[2.4311657E1,1.7260765E1,7.0508904E0,2.7149146E0,4.335976E0,1.5416673E0,1.1732472E0],"tree_param":{"num_deleted":"0","num_feature":"3","num_nodes":"7","size_leaf_vector":"0"}},{"base_weights":[-8.89131E-1],"categories":[],"categories_nodes":[],"categories_segments":[],"categories_sizes":[],"default_left":[0],"id":59,"left_children":[-1],"loss_changes":[0E0],"parents":[2147483647],"right_children":[-1],"split_conditions":[-4.4456553E-2],"split_indices":[0],"split_type":[0],"sum_hessian":[2.3297157E1],"tree_param":{"num_deleted":"0","num_feature":"3","num_nodes":"1","size_leaf_vector":"0"}},{"base_weights":[-8.785333E-1,-9.65871E-1,-5.7087284E-1,-8.2848436E-1,-6.132947E-2,5.8484083E-1,-6.1313283E-1],"categories":[],"categories_nodes":[],"categories_segments":[],"categories_sizes":[],"default_left":[1,0,1,0,1,0,0],"id":60,"left_children":[1,-1,3,-1,5,-1,-1],"loss_changes":[7.8271866E-2,0E0,9.5028734E-1,0E0,1.656802E0,0E0,0E0],"parents":[2147483647,0,0,2,2,4,4],"right_children":[2,-1,4,-1,6,-1,-1],"split_conditions":[1.2083525E1,-4.829355E-2,3.1964443E1,-4.142422E-2,4.490789E1,2.9242042E-2,-3.0656641E-2],"split_indices":[2,0,0,0,1,0,0],"split_type":[0,0,0,0,0,0,0],"sum_hessian":[2.2433357E1,1.5806774E1,6.626583E0,3.9856236E0,2.6409597E0,1.1888851E0,1.4520746E0],"tree_param":{"num_deleted":"0","num_feature":"3","num_nodes":"7","size_leaf_vector":"0"}},{"base_weights":[-8.740274E-1,-9.619915E-1,-5.647694E-1,-5.5385828E-2,-8.1989676E-1,-6.048211E-1,5.7693213E-1],"categories":[],"categories_nodes":[],"categories_segments":[],"categories_sizes":[],"default_left":[1,0,1,1,0,0,0],"id":61,"left_children":[1,-1,3,5,-1,-1,-1],"loss_changes":[6.889534E-2,0E0,9.1696763E-1,1.5800847E0,0E0,0E0,0E0],"parents":[2147483647,0,0,2,2,3,3],"right_children":[2,-1,4,6,-1,-1,-1],"split_conditions":[1.2083525E1,-4.8099574E-2,4.466032E1,3.18704E1,-4.0994838E-2,-3.0241055E-2,2.8846607E-2],"split_indices":[2,0,1,0,0,0,0],"split_type":[0,0,0,0,0,0,0],"sum_hessian":[2.1504242E1,1.5098922E1,6.4053206E0,2.5436993E0,3.8616216E0,1.3843191E0,1.1593801E0],"tree_param":{"num_deleted":"0","num_feature":"3","num_nodes":"7","size_leaf_vector":"0"}},{"base_weights":[-8.695037E-1,-9.580738E-1,-5.5870247E-1,-8.139223E-1,-5.446348E-2,5.691501E-1,-5.948932E-1],"categories":[],"categories_nodes":[],"categories_segments":[],"categories_sizes":[],"default_left":[1,0,1,0,1,0,0],"id":62,"left_children":[1,-1,3,-1,5,-1,-1],"loss_changes":[5.978203E-2,0E0,8.813498E-1,0E0,1.514428E0,0E0,0E0],"parents":[2147483647,0,0,2,2,4,4],"right_children":[2,-1,4,-1,6,-1,-1],"split_conditions":[1.2083525E1,-4.790369E-2,3.1964443E1,-4.0696114E-2,4.490789E1,2.8457506E-2,-2.974466E-2],"split_indices":[2,0,0,0,1,0,0],"split_type":[0,0,0,0,0,0,0],"sum_hessian":[2.0616781E1,1.442379E1,6.192991E0,3.704038E0,2.4889529E0,1.1308719E0,1.3580811E0],"tree_param":{"num_deleted":"0","num_feature":"3","num_nodes":"7","size_leaf_vector":"0"}},{"base_weights":[-8.649431E-1,-5.538287E-1,-9.553755E-1,-8.0359745E-1,-4.8833847E-2,-5.865249E-1,5.614915E-1],"categories":[],"categories_nodes":[],"categories_segments":[],"categories_sizes":[],"default_left":[1,1,0,0,1,0,0],"id":63,"left_children":[1,3,-1,-1,5,-1,-1],"loss_changes":[5.5233E-2,8.5083914E-1,0E0,0E0,1.4450765E0,0E0,0E0],"parents":[2147483647,0,0,1,1,4,4],"right_children":[2,4,-1,-1,6,-1,-1],"split_conditions":[4.466032E1,1.2083525E1,-4.7768775E-2,-4.0179875E-2,3.18704E1,-2.9326245E-2,2.8074576E-2],"split_indices":[1,2,0,0,0,0,0],"split_type":[0,0,0,0,0,0,0],"sum_hessian":[1.976957E1,6.0567546E0,1.3712815E1,3.65681E0,2.3999443E0,1.2966254E0,1.1033188E0],"tree_param":{"num_deleted":"0","num_feature":"3","num_nodes":"7","size_leaf_vector":"0"}},{"base_weights":[-8.603437E-1,-9.5026606E-1,-5.447795E-1,-7.9838425E-1,-4.51796E-2,5.5395603E-1,-5.75075E-1],"categories":[],"categories_nodes":[],"categories_segments":[],"categories_sizes":[],"default_left":[1,0,1,0,1,0,0],"id":64,"left_children":[1,-1,3,-1,5,-1,-1],"loss_changes":[4.872513E-2,0E0,8.217056E-1,0E0,1.3787812E0,0E0,0E0],"parents":[2147483647,0,0,2,2,4,4],"right_children":[2,-1,4,-1,6,-1,-1],"split_conditions":[1.2083525E1,-4.7513302E-2,3.1964443E1,-3.9919212E-2,4.490789E1,2.7697802E-2,-2.8753748E-2],"split_indices":[2,0,0,0,1,0,0],"split_type":[0,0,0,0,0,0,0],"sum_hessian":[1.8960697E1,1.3190611E1,5.770086E0,3.430608E0,2.339478E0,1.0766913E0,1.2627867E0],"tree_param":{"num_deleted":"0","num_feature":"3","num_nodes":"7","size_leaf_vector":"0"}},{"base_weights":[-8.5571307E-1,-5.390576E-1,-9.474316E-1,-7.872697E-1,-4.25879E-2,-5.686312E-1,5.4654187E-1],"categories":[],"categories_nodes":[],"categories_segments":[],"categories_sizes":[],"default_left":[1,1,0,0,1,0,0],"id":65,"left_children":[1,3,-1,-1,5,-1,-1],"loss_changes":[4.6567917E-2,7.8343284E-1,0E0,0E0,1.3232223E0,0E0,0E0],"parents":[2147483647,0,0,1,1,4,4],"right_children":[2,4,-1,-1,6,-1,-1],"split_conditions":[4.466032E1,1.2083525E1,-4.737158E-2,-3.9363485E-2,3.18704E1,-2.8431559E-2,2.7327094E-2],"split_indices":[1,2,0,0,0,0,0],"split_type":[0,0,0,0,0,0,0],"sum_hessian":[1.8188208E1,5.6295757E0,1.2558631E1,3.3626633E0,2.2669127E0,1.2159586E0,1.0509541E0],"tree_param":{"num_deleted":"0","num_feature":"3","num_nodes":"7","size_leaf_vector":"0"}},{"base_weights":[-8.510383E-1,-8.926951E-1,-3.659965E-1,-5.5052036E-1,1.4659697E-2],"categories":[],"categories_nodes":[],"categories_segments":[],"categories_sizes":[],"default_left":[1,0,1,0,0],"id":66,"left_children":[1,-1,3,-1,-1],"loss_changes":[4.6081543E-2,0E0,2.296198E-1,0E0,0E0],"parents":[2147483647,0,0,2,2],"right_children":[2,-1,4,-1,-1],"split_conditions":[1.4004091E1,-4.4634756E-2,3.1735075E1,-2.752602E-2,7.3298486E-4],"split_indices":[2,0,0,0,0],"split_type":[0,0,0,0,0],"sum_hessian":[1.7450766E1,1.5296597E1,2.1541688E0,1.1503123E0,1.0038565E0],"tree_param":{"num_deleted":"0","num_feature":"3","num_nodes":"5","size_leaf_vector":"0"}},{"base_weights":[-8.417375E-1,-5.132594E-1,-9.394829E-1,-7.711014E-1,-2.0693796E-2,-5.5146873E-1,5.4525226E-1],"categories":[],"categories_nodes":[],"categories_segments":[],"categories_sizes":[],"default_left":[1,1,0,0,1,0,0],"id":67,"left_children":[1,3,-1,-1,5,-1,-1],"loss_changes":[9.005737E-2,7.831001E-1,0E0,0E0,1.2587479E0,0E0,0E0],"parents":[2147483647,0,0,1,1,4,4],"right_children":[2,4,-1,-1,6,-1,-1],"split_conditions":[4.466032E1,1.2083525E1,-4.697415E-2,-3.855507E-2,3.18704E1,-2.7573436E-2,2.7262613E-2],"split_indices":[1,2,0,0,0,0,0],"split_type":[0,0,0,0,0,0,0],"sum_hessian":[1.6823217E1,5.2915845E0,1.1531632E1,3.102203E0,2.1893816E0,1.1429974E0,1.0463841E0],"tree_param":{"num_deleted":"0","num_feature":"3","num_nodes":"7","size_leaf_vector":"0"}},{"base_weights":[-8.3697593E-1,-9.342403E-1,-5.0576115E-1,-7.6731014E-1,-1.1180466E-2,5.379779E-1,-5.360799E-1],"categories":[],"categories_nodes":[],"categories_segments":[],"categories_sizes":[],"default_left":[1,0,1,0,1,0,0],"id":68,"left_children":[1,-1,3,-1,5,-1,-1],"loss_changes":[7.9927444E-2,0E0,7.7699935E-1,0E0,1.1864358E0,0E0,0E0],"parents":[2147483647,0,0,2,2,4,4],"right_children":[2,-1,4,-1,6,-1,-1],"split_conditions":[1.2083525E1,-4.6712015E-2,3.1964443E1,-3.836551E-2,4.490789E1,2.6898894E-2,-2.6803995E-2],"split_indices":[2,0,0,0,1,0,0],"split_type":[0,0,0,0,0,0,0],"sum_hessian":[1.6148005E1,1.1075062E1,5.0729423E0,2.9574947E0,2.1154475E0,1.0216572E0,1.0937904E0],"tree_param":{"num_deleted":"0","num_feature":"3","num_nodes":"7","size_leaf_vector":"0"}},{"base_weights":[-8.321718E-1,-4.987419E-1,-9.311127E-1,-7.5415325E-1,-1.570753E-2,-5.270881E-1,5.075775E-1],"categories":[],"categories_nodes":[],"categories_segments":[],"categories_sizes":[],"default_left":[1,1,0,0,1,0,0],"id":69,"left_children":[1,3,-1,-1,5,-1,-1],"loss_changes":[8.004761E-2,7.197479E-1,0E0,0E0,1.0896808E0,0E0,0E0],"parents":[2147483647,0,0,1,1,4,4],"right_children":[2,4,-1,-1,6,-1,-1],"split_conditions":[4.466032E1,1.2083525E1,-4.6555635E-2,-3.7707664E-2,3.1696905E1,-2.6354406E-2,2.5378874E-2],"split_indices":[1,2,0,0,0,0,0],"split_type":[0,0,0,0,0,0,0],"sum_hessian":[1.5503071E1,4.9299607E0,1.0573111E1,2.8576527E0,2.0723078E0,1.0443999E0,1.027908E0],"tree_param":{"num_deleted":"0","num_feature":"3","num_nodes":"7","size_leaf_vector":"0"}},{"base_weights":[-8.272209E-1,-4.9305937E-1,-9.2664397E-1,-7.464858E-1,-1.54977655E-2,-5.2028817E-1,5.001227E-1],"categories":[],"categories_nodes":[],"categories_segments":[],"categories_sizes":[],"default_left":[1,1,0,0,1,0,0],"id":70,"left_children":[1,3,-1,-1,5,-1,-1],"loss_changes":[7.104015E-2,6.880753E-1,0E0,0E0,1.0476559E0,0E0,0E0],"parents":[2147483647,0,0,1,1,4,4],"right_children":[2,4,-1,-1,6,-1,-1],"split_conditions":[4.466032E1,1.2083525E1,-4.63322E-2,-3.732429E-2,3.1696905E1,-2.6014408E-2,2.5006136E-2],"split_indices":[1,2,0,0,0,0,0],"split_type":[0,0,0,0,0,0,0],"sum_hessian":[1.4890354E1,4.780905E0,1.0109449E1,2.75552E0,2.0253847E0,1.0188662E0,1.0065185E0],"tree_param":{"num_deleted":"0","num_feature":"3","num_nodes":"7","size_leaf_vector":"0"}},{"base_weights":[-8.2222E-1,-9.214865E-1,-4.8421633E-1,-7.4362063E-1,4.2935954E-3],"categories":[],"categories_nodes":[],"categories_segments":[],"categories_sizes":[],"default_left":[1,0,1,0,0],"id":71,"left_children":[1,-1,3,-1,-1],"loss_changes":[6.733799E-2,0E0,7.105422E-1,0E0,0E0],"parents":[2147483647,0,0,2,2],"right_children":[2,-1,4,-1,-1],"split_conditions":[1.2083525E1,-4.6074327E-2,3.1964443E1,-3.718103E-2,2.1467978E-4],"split_indices":[2,0,0,0,0],"split_type":[0,0,0,0,0],"sum_hessian":[1.4305469E1,9.723551E0,4.5819173E0,2.6516428E0,1.9302746E0],"tree_param":{"num_deleted":"0","num_feature":"3","num_nodes":"5","size_leaf_vector":"0"}},{"base_weights":[-8.14805E-1,-4.7224057E-1,-9.181539E-1,-7.29155E-1,-2.8308711E-3],"categories":[],"categories_nodes":[],"categories_segments":[],"categories_sizes":[],"default_left":[1,1,0,0,0],"id":72,"left_children":[1,3,-1,-1,-1],"loss_changes":[8.998108E-2,6.596085E-1,0E0,0E0,0E0],"parents":[2147483647,0,0,1,1],"right_children":[2,4,-1,-1,-1],"split_conditions":[4.466032E1,1.2083525E1,-4.5907695E-2,-3.645775E-2,-1.4154355E-4],"split_indices":[1,2,0,0,0],"split_type":[0,0,0,0,0],"sum_hessian":[1.3788637E1,4.4865913E0,9.302047E0,2.5419838E0,1.9446075E0],"tree_param":{"num_deleted":"0","num_feature":"3","num_nodes":"5","size_leaf_vector":"0"}},{"base_weights":[-8.072638E-1,-4.630422E-1,-9.134441E-1,-7.2141945E-1,-2.7373815E-3],"categories":[],"categories_nodes":[],"categories_segments":[],"categories_sizes":[],"default_left":[1,1,0,0,0],"id":73,"left_children":[1,3,-1,-1,-1],"loss_changes":[9.955788E-2,6.40062E-1,0E0,0E0,0E0],"parents":[2147483647,0,0,1,1],"right_children":[2,4,-1,-1,-1],"split_conditions":[4.466032E1,1.2083525E1,-4.5672204E-2,-3.6070973E-2,-1.3686907E-4],"split_indices":[1,2,0,0,0],"split_type":[0,0,0,0,0],"sum_hessian":[1.3296233E1,4.3983393E0,8.897894E0,2.4537444E0,1.9445949E0],"tree_param":{"num_deleted":"0","num_feature":"3","num_nodes":"5","size_leaf_vector":"0"}},{"base_weights":[-7.996207E-1,-9.0805763E-1,-4.51695E-1,-7.2400326E-1,3.4414236E-2],"categories":[],"categories_nodes":[],"categories_segments":[],"categories_sizes":[],"default_left":[1,0,1,0,0],"id":74,"left_children":[1,-1,3,-1,-1],"loss_changes":[1.11486435E-1,0E0,7.231941E-1,0E0,0E0],"parents":[2147483647,0,0,2,2],"right_children":[2,-1,4,-1,-1],"split_conditions":[1.2083525E1,-4.540288E-2,3.1964443E1,-3.6200162E-2,1.7207118E-3],"split_indices":[2,0,0,0,0],"split_type":[0,0,0,0,0],"sum_hessian":[1.2826629E1,8.551492E0,4.2751374E0,2.4264863E0,1.8486509E0],"tree_param":{"num_deleted":"0","num_feature":"3","num_nodes":"5","size_leaf_vector":"0"}},{"base_weights":[-7.920278E-1,-4.391692E-1,-9.0452576E-1,-7.068526E-1,9.674773E-3],"categories":[],"categories_nodes":[],"categories_segments":[],"categories_sizes":[],"default_left":[1,1,0,0,0],"id":75,"left_children":[1,3,-1,-1,-1],"loss_changes":[1.3367939E-1,6.2884384E-1,0E0,0E0,0E0],"parents":[2147483647,0,0,1,1],"right_children":[2,4,-1,-1,-1],"split_conditions":[4.466032E1,3.1954775E1,-4.5226287E-2,-3.534263E-2,4.8373864E-4],"split_indices":[1,0,0,0,0],"split_type":[0,0,0,0,0],"sum_hessian":[1.237464E1,4.1769886E0,8.197651E0,2.2564492E0,1.9205395E0],"tree_param":{"num_deleted":"0","num_feature":"3","num_nodes":"5","size_leaf_vector":"0"}},{"base_weights":[-7.841895E-1,-8.9907235E-1,-4.277439E-1,-7.0697695E-1,4.7697235E-2],"categories":[],"categories_nodes":[],"categories_segments":[],"categories_sizes":[],"default_left":[1,0,1,0,0],"id":76,"left_children":[1,-1,3,-1,-1],"loss_changes":[1.4559889E-1,0E0,7.0591325E-1,0E0,0E0],"parents":[2147483647,0,0,2,2],"right_children":[2,-1,4,-1,-1],"split_conditions":[1.2083525E1,-4.495362E-2,3.1964443E1,-3.5348848E-2,2.3848617E-3],"split_indices":[2,0,0,0,0],"split_type":[0,0,0,0,0],"sum_hessian":[1.1946975E1,7.8837175E0,4.063257E0,2.2530303E0,1.810227E0],"tree_param":{"num_deleted":"0","num_feature":"3","num_nodes":"5","size_leaf_vector":"0"}},{"base_weights":[-7.7647287E-1,-4.1584107E-1,-8.953185E-1,-6.894299E-1,3.1107679E-2],"categories":[],"categories_nodes":[],"categories_segments":[],"categories_sizes":[],"default_left":[1,1,0,0,0],"id":77,"left_children":[1,3,-1,-1,-1],"loss_changes":[1.648817E-1,6.2966365E-1,0E0,0E0,0E0],"parents":[2147483647,0,0,1,1],"right_children":[2,4,-1,-1,-1],"split_conditions":[4.466032E1,1.2083525E1,-4.4765927E-2,-3.4471493E-2,1.555384E-3],"split_indices":[1,2,0,0,0],"split_type":[0,0,0,0,0],"sum_hessian":[1.1533778E1,3.973964E0,7.5598145E0,2.1285179E0,1.845446E0],"tree_param":{"num_deleted":"0","num_feature":"3","num_nodes":"5","size_leaf_vector":"0"}},{"base_weights":[-7.686023E-1,-4.076719E-1,-8.901554E-1,-6.8554E-1,3.4295525E-2],"categories":[],"categories_nodes":[],"categories_segments":[],"categories_sizes":[],"default_left":[1,1,0,0,0],"id":78,"left_children":[1,3,-1,-1,-1],"loss_changes":[1.697669E-1,6.257258E-1,0E0,0E0,0E0],"parents":[2147483647,0,0,1,1],"right_children":[2,4,-1,-1,-1],"split_conditions":[4.466032E1,3.1954775E1,-4.4507768E-2,-3.4277003E-2,1.7147763E-3],"split_indices":[1,0,0,0,0],"split_type":[0,0,0,0,0],"sum_hessian":[1.11411295E1,3.903685E0,7.237444E0,2.0584273E0,1.8452579E0],"tree_param":{"num_deleted":"0","num_feature":"3","num_nodes":"5","size_leaf_vector":"0"}},{"base_weights":[-7.6061875E-1,-8.849407E-1,-3.938329E-1,-6.842824E-1,7.314369E-2],"categories":[],"categories_nodes":[],"categories_segments":[],"categories_sizes":[],"default_left":[1,0,1,0,0],"id":79,"left_children":[1,-1,3,-1,-1],"loss_changes":[1.880517E-1,0E0,6.984728E-1,0E0,0E0],"parents":[2147483647,0,0,2,2],"right_children":[2,-1,4,-1,-1],"split_conditions":[1.2083525E1,-4.4247035E-2,3.1964443E1,-3.421412E-2,3.6571845E-3],"split_indices":[2,0,0,0,0],"split_type":[0,0,0,0,0],"sum_hessian":[1.0767028E1,6.986325E0,3.7807028E0,2.0440195E0,1.7366832E0],"tree_param":{"num_deleted":"0","num_feature":"3","num_nodes":"5","size_leaf_vector":"0"}},{"base_weights":[-7.527789E-1,-3.8545507E-1,-8.804692E-1,-6.673982E-1,5.027749E-2],"categories":[],"categories_nodes":[],"categories_segments":[],"categories_sizes":[],"default_left":[1,1,0,0,0],"id":80,"left_children":[1,3,-1,-1,-1],"loss_changes":[1.9554281E-1,6.134844E-1,0E0,0E0,0E0],"parents":[2147483647,0,0,1,1],"right_children":[2,4,-1,-1,-1],"split_conditions":[4.466032E1,1.2083525E1,-4.402346E-2,-3.336991E-2,2.5138746E-3],"split_indices":[1,2,0,0,0],"split_type":[0,0,0,0,0],"sum_hessian":[1.0404731E1,3.7205584E0,6.684172E0,1.9361151E0,1.7844434E0],"tree_param":{"num_deleted":"0","num_feature":"3","num_nodes":"5","size_leaf_vector":"0"}},{"base_weights":[-7.4476916E-1,-8.7460303E-1,-3.758931E-1,-6.709483E-1,8.3504155E-2],"categories":[],"categories_nodes":[],"categories_segments":[],"categories_sizes":[],"default_left":[1,0,1,0,0],"id":81,"left_children":[1,-1,3,-1,-1],"loss_changes":[2.009983E-1,0E0,6.84077E-1,0E0,0E0],"parents":[2147483647,0,0,2,2],"right_children":[2,-1,4,-1,-1],"split_conditions":[1.2083525E1,-4.373015E-2,3.1964443E1,-3.3547416E-2,4.175208E-3],"split_indices":[2,0,0,0,0],"split_type":[0,0,0,0,0],"sum_hessian":[1.0061325E1,6.427895E0,3.6334302E0,1.9320457E0,1.7013844E0],"tree_param":{"num_deleted":"0","num_feature":"3","num_nodes":"5","size_leaf_vector":"0"}},{"base_weights":[-7.368482E-1,-3.640408E-1,-8.704756E-1,-6.5531266E-1,6.8477936E-2],"categories":[],"categories_nodes":[],"categories_segments":[],"categories_sizes":[],"default_left":[1,1,0,0,0],"id":82,"left_children":[1,3,-1,-1,-1],"loss_changes":[2.1764517E-1,6.1808676E-1,0E0,0E0,0E0],"parents":[2147483647,0,0,1,1],"right_children":[2,4,-1,-1,-1],"split_conditions":[4.466032E1,3.1954775E1,-4.352378E-2,-3.2765634E-2,3.4238969E-3],"split_indices":[1,0,0,0,0],"split_type":[0,0,0,0,0],"sum_hessian":[9.729887E0,3.550008E0,6.1798787E0,1.8135785E0,1.7364296E0],"tree_param":{"num_deleted":"0","num_feature":"3","num_nodes":"5","size_leaf_vector":"0"}},{"base_weights":[-7.2875965E-1,-8.6451155E-1,-3.546008E-1,-6.5399414E-1,9.289987E-2],"categories":[],"categories_nodes":[],"categories_segments":[],"categories_sizes":[],"default_left":[1,0,1,0,0],"id":83,"left_children":[1,-1,3,-1,-1],"loss_changes":[2.2247744E-1,0E0,6.594149E-1,0E0,0E0],"parents":[2147483647,0,0,2,2],"right_children":[2,-1,4,-1,-1],"split_conditions":[1.2083525E1,-4.322558E-2,3.1964443E1,-3.2699708E-2,4.644993E-3],"split_indices":[2,0,0,0,0],"split_type":[0,0,0,0,0],"sum_hessian":[9.415538E0,5.9472256E0,3.4683125E0,1.8015658E0,1.6667469E0],"tree_param":{"num_deleted":"0","num_feature":"3","num_nodes":"5","size_leaf_vector":"0"}},{"base_weights":[-7.207748E-1,-3.4335378E-1,-8.6017734E-1,-6.3839614E-1,7.815592E-2],"categories":[],"categories_nodes":[],"categories_segments":[],"categories_sizes":[],"default_left":[1,1,0,0,0],"id":84,"left_children":[1,3,-1,-1,-1],"loss_changes":[2.3668194E-1,5.960798E-1,0E0,0E0,0E0],"parents":[2147483647,0,0,1,1],"right_children":[2,4,-1,-1,-1],"split_conditions":[4.466032E1,3.1954775E1,-4.3008868E-2,-3.1919807E-2,3.907796E-3],"split_indices":[1,0,0,0,0],"split_type":[0,0,0,0,0],"sum_hessian":[9.1119995E0,3.3918576E0,5.720142E0,1.69257E0,1.6992875E0],"tree_param":{"num_deleted":"0","num_feature":"3","num_nodes":"5","size_leaf_vector":"0"}},{"base_weights":[-7.126348E-1,-8.5411835E-1,-3.3407745E-1,-6.37136E-1,1.0150963E-1],"categories":[],"categories_nodes":[],"categories_segments":[],"categories_sizes":[],"default_left":[1,0,1,0,0],"id":85,"left_children":[1,-1,3,-1,-1],"loss_changes":[2.4083424E-1,0E0,6.3431513E-1,0E0,0E0],"parents":[2147483647,0,0,2,2],"right_children":[2,-1,4,-1,-1],"split_conditions":[1.2083525E1,-4.270592E-2,3.1964443E1,-3.18568E-2,5.0754817E-3],"split_indices":[2,0,0,0,0],"split_type":[0,0,0,0,0],"sum_hessian":[8.824118E0,5.5089397E0,3.3151784E0,1.6821327E0,1.6330458E0],"tree_param":{"num_deleted":"0","num_feature":"3","num_nodes":"5","size_leaf_vector":"0"}},{"base_weights":[-7.0460576E-1,-3.2344168E-1,-8.495801E-1,-6.2148696E-1,9.1712125E-2],"categories":[],"categories_nodes":[],"categories_segments":[],"categories_sizes":[],"default_left":[1,1,0,0,0],"id":86,"left_children":[1,3,-1,-1,-1],"loss_changes":[2.5270987E-1,5.822606E-1,0E0,0E0,0E0],"parents":[2147483647,0,0,1,1],"right_children":[2,4,-1,-1,-1],"split_conditions":[4.466032E1,1.2083525E1,-4.2479005E-2,-3.1074349E-2,4.5856065E-3],"split_indices":[1,2,0,0,0],"split_type":[0,0,0,0,0],"sum_hessian":[8.545944E0,3.2450745E0,5.30087E0,1.5996542E0,1.6454204E0],"tree_param":{"num_deleted":"0","num_feature":"3","num_nodes":"5","size_leaf_vector":"0"}},{"base_weights":[-6.9649374E-1,-3.1731838E-1,-8.435397E-1,-6.1811715E-1,9.486344E-2],"categories":[],"categories_nodes":[],"categories_segments":[],"categories_sizes":[],"default_left":[1,1,0,0,0],"id":87,"left_children":[1,3,-1,-1,-1],"loss_changes":[2.4980307E-1,5.7893157E-1,0E0,0E0,0E0],"parents":[2147483647,0,0,1,1],"right_children":[2,4,-1,-1,-1],"split_conditions":[4.466032E1,3.1954775E1,-4.2176988E-2,-3.0905858E-2,4.743172E-3],"split_indices":[1,0,0,0,0],"split_type":[0,0,0,0,0],"sum_hessian":[8.281006E0,3.1964746E0,5.0845313E0,1.5590794E0,1.6373951E0],"tree_param":{"num_deleted":"0","num_feature":"3","num_nodes":"5","size_leaf_vector":"0"}},{"base_weights":[-6.883382E-1,-8.378549E-1,-3.055105E-1,-6.1537284E-1,1.19854815E-1],"categories":[],"categories_nodes":[],"categories_segments":[],"categories_sizes":[],"default_left":[1,0,1,0,0],"id":88,"left_children":[1,-1,3,-1,-1],"loss_changes":[2.607875E-1,0E0,6.1541593E-1,0E0,0E0],"parents":[2147483647,0,0,2,2],"right_children":[2,-1,4,-1,-1],"split_conditions":[1.2083525E1,-4.189275E-2,3.1964443E1,-3.0768642E-2,5.992741E-3],"split_indices":[2,0,0,0,0],"split_type":[0,0,0,0,0],"sum_hessian":[8.0281E0,4.91853E0,3.1095698E0,1.5406052E0,1.5689646E0],"tree_param":{"num_deleted":"0","num_feature":"3","num_nodes":"5","size_leaf_vector":"0"}},{"base_weights":[-6.803168E-1,-2.986358E-1,-8.32476E-1,-6.015878E-1,1.0237438E-1],"categories":[],"categories_nodes":[],"categories_segments":[],"categories_sizes":[],"default_left":[1,1,0,0,0],"id":89,"left_children":[1,3,-1,-1,-1],"loss_changes":[2.6147652E-1,5.5516505E-1,0E0,0E0,0E0],"parents":[2147483647,0,0,1,1],"right_children":[2,4,-1,-1,-1],"split_conditions":[4.466032E1,3.1954775E1,-4.16238E-2,-3.0079389E-2,5.1187193E-3],"split_indices":[1,0,0,0,0],"split_type":[0,0,0,0,0],"sum_hessian":[7.783003E0,3.0628092E0,4.720194E0,1.4597946E0,1.6030147E0],"tree_param":{"num_deleted":"0","num_feature":"3","num_nodes":"5","size_leaf_vector":"0"}},{"base_weights":[-6.721615E-1,-8.2673854E-1,-2.8704733E-1,-5.989248E-1,1.263269E-1],"categories":[],"categories_nodes":[],"categories_segments":[],"categories_sizes":[],"default_left":[1,0,1,0,0],"id":90,"left_children":[1,-1,3,-1,-1],"loss_changes":[2.7172613E-1,0E0,5.889027E-1,0E0,0E0],"parents":[2147483647,0,0,2,2],"right_children":[2,-1,4,-1,-1],"split_conditions":[1.2083525E1,-4.1336928E-2,3.1964443E1,-2.9946242E-2,6.316345E-3],"split_indices":[2,0,0,0,0],"split_type":[0,0,0,0,0],"sum_hessian":[7.5509896E0,4.5699635E0,2.9810262E0,1.4432629E0,1.5377634E0],"tree_param":{"num_deleted":"0","num_feature":"3","num_nodes":"5","size_leaf_vector":"0"}},{"base_weights":[-6.641463E-1,-2.8074548E-1,-8.211439E-1,-5.869351E-1,1.16997905E-1],"categories":[],"categories_nodes":[],"categories_segments":[],"categories_sizes":[],"default_left":[1,1,0,0,0],"id":91,"left_children":[1,3,-1,-1,-1],"loss_changes":[2.7063107E-1,5.483061E-1,0E0,0E0,0E0],"parents":[2147483647,0,0,1,1],"right_children":[2,4,-1,-1,-1],"split_conditions":[4.466032E1,1.2083525E1,-4.1057196E-2,-2.9346755E-2,5.8498955E-3],"split_indices":[1,2,0,0,0],"split_type":[0,0,0,0,0],"sum_hessian":[7.325943E0,2.9383855E0,4.3875575E0,1.3915125E0,1.546873E0],"tree_param":{"num_deleted":"0","num_feature":"3","num_nodes":"5","size_leaf_vector":"0"}},{"base_weights":[-6.560833E-1,-8.144848E-1,-2.7376395E-1,-5.8682835E-1,1.3207069E-1],"categories":[],"categories_nodes":[],"categories_segments":[],"categories_sizes":[],"default_left":[1,0,1,0,0],"id":92,"left_children":[1,-1,3,-1,-1],"loss_changes":[2.6826167E-1,0E0,5.707897E-1,0E0,0E0],"parents":[2147483647,0,0,2,2],"right_children":[2,-1,4,-1,-1],"split_conditions":[1.2083525E1,-4.072424E-2,3.1964443E1,-2.9341418E-2,6.603535E-3],"split_indices":[2,0,0,0,0],"split_type":[0,0,0,0,0],"sum_hessian":[7.1115994E0,4.2290525E0,2.882547E0,1.3754972E0,1.5070497E0],"tree_param":{"num_deleted":"0","num_feature":"3","num_nodes":"5","size_leaf_vector":"0"}},{"base_weights":[-6.4810085E-1,-2.637019E-1,-8.095613E-1,-5.734356E-1,1.2508738E-1],"categories":[],"categories_nodes":[],"categories_segments":[],"categories_sizes":[],"default_left":[1,1,0,0,0],"id":93,"left_children":[1,3,-1,-1,-1],"loss_changes":[2.7714252E-1,5.318976E-1,0E0,0E0,0E0],"parents":[2147483647,0,0,1,1],"right_children":[2,4,-1,-1,-1],"split_conditions":[4.466032E1,3.1954775E1,-4.0478066E-2,-2.867178E-2,6.254369E-3],"split_indices":[1,0,0,0,0],"split_type":[0,0,0,0,0],"sum_hessian":[6.9049926E0,2.8213224E0,4.0836697E0,1.3059748E0,1.5153476E0],"tree_param":{"num_deleted":"0","num_feature":"3","num_nodes":"5","size_leaf_vector":"0"}},{"base_weights":[-6.400611E-1,-8.0281943E-1,-2.569491E-1,-5.708412E-1,1.372224E-1],"categories":[],"categories_nodes":[],"categories_segments":[],"categories_sizes":[],"default_left":[1,0,1,0,0],"id":94,"left_children":[1,-1,3,-1,-1],"loss_changes":[2.7435994E-1,0E0,5.44663E-1,0E0,0E0],"parents":[2147483647,0,0,2,2],"right_children":[2,-1,4,-1,-1],"split_conditions":[1.2083525E1,-4.014097E-2,3.1964443E1,-2.854206E-2,6.86112E-3],"split_indices":[2,0,0,0,0],"split_type":[0,0,0,0,0],"sum_hessian":[6.7082214E0,3.9392004E0,2.7690208E0,1.2919736E0,1.4770473E0],"tree_param":{"num_deleted":"0","num_feature":"3","num_nodes":"5","size_leaf_vector":"0"}},{"base_weights":[-6.32126E-1,-2.4743235E-1,-7.977511E-1,-5.5668116E-1,1.3119984E-1],"categories":[],"categories_nodes":[],"categories_segments":[],"categories_sizes":[],"default_left":[1,1,0,0,0],"id":95,"left_children":[1,3,-1,-1,-1],"loss_changes":[2.8163314E-1,5.077174E-1,0E0,0E0,0E0],"parents":[2147483647,0,0,1,1],"right_children":[2,4,-1,-1,-1],"split_conditions":[4.466032E1,1.2083525E1,-3.988756E-2,-2.7834058E-2,6.5599917E-3],"split_indices":[1,2,0,0,0],"split_type":[0,0,0,0,0],"sum_hessian":[6.51822E0,2.7123163E0,3.805904E0,1.2341106E0,1.4782057E0],"tree_param":{"num_deleted":"0","num_feature":"3","num_nodes":"5","size_leaf_vector":"0"}},{"base_weights":[-6.2417555E-1,-2.4319263E-1,-7.909244E-1,-5.5492437E-1,1.3579851E-1],"categories":[],"categories_nodes":[],"categories_segments":[],"categories_sizes":[],"default_left":[1,1,0,0,0],"id":96,"left_children":[1,3,-1,-1,-1],"loss_changes":[2.7374434E-1,5.098379E-1,0E0,0E0,0E0],"parents":[2147483647,0,0,1,1],"right_children":[2,4,-1,-1,-1],"split_conditions":[4.466032E1,3.1954775E1,-3.9546218E-2,-2.774622E-2,6.789926E-3],"split_indices":[1,0,0,0,0],"split_type":[0,0,0,0,0],"sum_hessian":[6.3367314E0,2.6775591E0,3.6591723E0,1.214435E0,1.4631243E0],"tree_param":{"num_deleted":"0","num_feature":"3","num_nodes":"5","size_leaf_vector":"0"}},{"base_weights":[-6.1625683E-1,-7.8477174E-1,-2.3387687E-1,-5.508711E-1,1.5010412E-1],"categories":[],"categories_nodes":[],"categories_segments":[],"categories_sizes":[],"default_left":[1,0,1,0,0],"id":97,"left_children":[1,-1,3,-1,-1],"loss_changes":[2.78013E-1,0E0,5.227797E-1,0E0,0E0],"parents":[2147483647,0,0,2,2],"right_children":[2,-1,4,-1,-1],"split_conditions":[1.2083525E1,-3.9238587E-2,3.1964443E1,-2.7543554E-2,7.505206E-3],"split_indices":[2,0,0,0,0],"split_type":[0,0,0,0,0],"sum_hessian":[6.162881E0,3.547266E0,2.615615E0,1.1947018E0,1.4209132E0],"tree_param":{"num_deleted":"0","num_feature":"3","num_nodes":"5","size_leaf_vector":"0"}},{"base_weights":[-6.0846245E-1,-2.2809136E-1,-7.7877784E-1,-5.395415E-1,1.4001392E-1],"categories":[],"categories_nodes":[],"categories_segments":[],"categories_sizes":[],"default_left":[1,1,0,0,0],"id":98,"left_children":[1,3,-1,-1,-1],"loss_changes":[2.7548718E-1,4.8568135E-1,0E0,0E0,0E0],"parents":[2147483647,0,0,1,1],"right_children":[2,4,-1,-1,-1],"split_conditions":[4.466032E1,3.1954775E1,-3.893889E-2,-2.6977075E-2,7.000696E-3],"split_indices":[1,0,0,0,0],"split_type":[0,0,0,0,0],"sum_hessian":[5.9944153E0,2.5774157E0,3.4169996E0,1.1438717E0,1.4335442E0],"tree_param":{"num_deleted":"0","num_feature":"3","num_nodes":"5","size_leaf_vector":"0"}},{"base_weights":[-6.0063124E-1,-7.726053E-1,-2.1905923E-1,-5.3561276E-1,1.5369883E-1],"categories":[],"categories_nodes":[],"categories_segments":[],"categories_sizes":[],"default_left":[1,0,1,0,0],"id":99,"left_children":[1,-1,3,-1,-1],"loss_changes":[2.7922273E-1,0E0,4.9755684E-1,0E0,0E0],"parents":[2147483647,0,0,2,2],"right_children":[2,-1,4,-1,-1],"split_conditions":[1.2083525E1,-3.8630266E-2,3.1964443E1,-2.6780639E-2,7.684942E-3],"split_indices":[2,0,0,0,0],"split_type":[0,0,0,0,0],"sum_hessian":[5.834284E0,3.31529E0,2.5189936E0,1.1259358E0,1.393058E0],"tree_param":{"num_deleted":"0","num_feature":"3","num_nodes":"5","size_leaf_vector":"0"}},{"base_weights":[-5.929292E-1,-2.137418E-1,-7.664691E-1,-5.2501017E-1,1.471786E-1],"categories":[],"categories_nodes":[],"categories_segments":[],"categories_sizes":[],"default_left":[1,1,0,0,0],"id":100,"left_children":[1,3,-1,-1,-1],"loss_changes":[2.756784E-1,4.6864069E-1,0E0,0E0,0E0],"parents":[2147483647,0,0,1,1],"right_children":[2,4,-1,-1,-1],"split_conditions":[4.466032E1,1.2083525E1,-3.832346E-2,-2.625051E-2,7.3589305E-3],"split_indices":[1,2,0,0,0],"split_type":[0,0,0,0,0],"sum_hessian":[5.678983E0,2.4837058E0,3.1952775E0,1.0894712E0,1.3942345E0],"tree_param":{"num_deleted":"0","num_feature":"3","num_nodes":"5","size_leaf_vector":"0"}},{"base_weights":[-5.852419E-1,-7.5916886E-1,-2.0921706E-1,-5.2496797E-1,1.5682259E-1],"categories":[],"categories_nodes":[],"categories_segments":[],"categories_sizes":[],"default_left":[1,0,1,0,0],"id":101,"left_children":[1,-1,3,-1,-1],"loss_changes":[2.6828027E-1,0E0,4.805842E-1,0E0,0E0],"parents":[2147483647,0,0,2,2],"right_children":[2,-1,4,-1,-1],"split_conditions":[1.2083525E1,-3.7958443E-2,3.1964443E1,-2.62484E-2,7.84113E-3],"split_indices":[2,0,0,0,0],"split_type":[0,0,0,0,0],"sum_hessian":[5.5306697E0,3.0848615E0,2.445808E0,1.0800009E0,1.365807E0],"tree_param":{"num_deleted":"0","num_feature":"3","num_nodes":"5","size_leaf_vector":"0"}},{"base_weights":[-5.776577E-1,-2.0016415E-1,-7.540271E-1,-5.141212E-1,1.5557204E-1],"categories":[],"categories_nodes":[],"categories_segments":[],"categories_sizes":[],"default_left":[1,1,0,0,0],"id":102,"left_children":[1,3,-1,-1,-1],"loss_changes":[2.743423E-1,4.5920247E-1,0E0,0E0,0E0],"parents":[2147483647,0,0,1,1],"right_children":[2,4,-1,-1,-1],"split_conditions":[4.466032E1,3.1954775E1,-3.7701357E-2,-2.5706058E-2,7.778602E-3],"split_indices":[1,0,0,0,0],"split_type":[0,0,0,0,0],"sum_hessian":[5.387535E0,2.3954117E0,2.9921231E0,1.0359216E0,1.3594903E0],"tree_param":{"num_deleted":"0","num_feature":"3","num_nodes":"5","size_leaf_vector":"0"}},{"base_weights":[-5.700974E-1,-7.4668175E-1,-1.9589011E-1,-5.103541E-1,1.5948197E-1],"categories":[],"categories_nodes":[],"categories_segments":[],"categories_sizes":[],"default_left":[1,0,1,0,0],"id":103,"left_children":[1,-1,3,-1,-1],"loss_changes":[2.6675487E-1,0E0,4.5682693E-1,0E0,0E0],"parents":[2147483647,0,0,2,2],"right_children":[2,-1,4,-1,-1],"split_conditions":[1.2083525E1,-3.733409E-2,3.1964443E1,-2.5517706E-2,7.974098E-3],"split_indices":[2,0,0,0,0],"split_type":[0,0,0,0,0],"sum_hessian":[5.2504206E0,2.8908777E0,2.3595428E0,1.0204492E0,1.3390936E0],"tree_param":{"num_deleted":"0","num_feature":"3","num_nodes":"5","size_leaf_vector":"0"}},{"base_weights":[-5.626381E-1,-1.8729228E-1,-7.4148256E-1,-4.6150503E-1,1.4691155E-1],"categories":[],"categories_nodes":[],"categories_segments":[],"categories_sizes":[],"default_left":[1,1,0,0,0],"id":104,"left_children":[1,3,-1,-1,-1],"loss_changes":[2.718333E-1,3.7135726E-1,0E0,0E0,0E0],"parents":[2147483647,0,0,1,1],"right_children":[2,4,-1,-1,-1],"split_conditions":[4.466032E1,1.2358671E1,-3.707413E-2,-2.307525E-2,7.3455772E-3],"split_indices":[1,2,0,0,0],"split_type":[0,0,0,0,0],"sum_hessian":[5.1182213E0,2.3123863E0,2.8058348E0,1.0609624E0,1.2514238E0],"tree_param":{"num_deleted":"0","num_feature":"3","num_nodes":"5","size_leaf_vector":"0"}},{"base_weights":[-5.547449E-1,-1.8403843E-1,-7.3412627E-1,-4.6220106E-1,1.4413057E-1],"categories":[],"categories_nodes":[],"categories_segments":[],"categories_sizes":[],"default_left":[1,1,0,0,0],"id":105,"left_children":[1,3,-1,-1,-1],"loss_changes":[2.6348257E-1,3.668689E-1,0E0,0E0,0E0],"parents":[2147483647,0,0,1,1],"right_children":[2,4,-1,-1,-1],"split_conditions":[4.466032E1,3.201441E1,-3.6706313E-2,-2.3110053E-2,7.206529E-3],"split_indices":[1,0,0,0,0],"split_type":[0,0,0,0,0],"sum_hessian":[4.994029E0,2.28919E0,2.7048392E0,1.0179398E0,1.2712501E0],"tree_param":{"num_deleted":"0","num_feature":"3","num_nodes":"5","size_leaf_vector":"0"}},{"base_weights":[-5.469637E-1,-7.2777027E-1,-1.763076E-1,1.7565916E-1,-4.2325646E-1],"categories":[],"categories_nodes":[],"categories_segments":[],"categories_sizes":[],"default_left":[1,0,1,0,0],"id":106,"left_children":[1,-1,3,-1,-1],"loss_changes":[2.654276E-1,0E0,3.5648376E-1,0E0,0E0],"parents":[2147483647,0,0,2,2],"right_children":[2,-1,4,-1,-1],"split_conditions":[1.2083525E1,-3.6388513E-2,4.3318825E1,8.782959E-3,-2.1162823E-2],"split_indices":[2,0,1,0,0],"split_type":[0,0,0,0,0],"sum_hessian":[4.8752074E0,2.62921E0,2.2459977E0,1.0451158E0,1.2008818E0],"tree_param":{"num_deleted":"0","num_feature":"3","num_nodes":"5","size_leaf_vector":"0"}},{"base_weights":[-5.3876424E-1,-7.2125846E-1,-1.7232071E-1,-4.619027E-1,1.8378638E-1],"categories":[],"categories_nodes":[],"categories_segments":[],"categories_sizes":[],"default_left":[1,0,1,0,0],"id":107,"left_children":[1,-1,3,-1,-1],"loss_changes":[2.6093447E-1,0E0,4.178701E-1,0E0,0E0],"parents":[2147483647,0,0,2,2],"right_children":[2,-1,4,-1,-1],"split_conditions":[3.200212E1,-3.6062922E-2,1.235199E1,-2.3095137E-2,9.189319E-3],"split_indices":[0,0,2,0,0],"split_type":[0,0,0,0,0],"sum_hessian":[4.7604346E0,2.531463E0,2.2289717E0,1.0654616E0,1.1635101E0],"tree_param":{"num_deleted":"0","num_feature":"3","num_nodes":"5","size_leaf_vector":"0"}},{"base_weights":[-5.312372E-1,-1.6415137E-1,-7.1506834E-1,-4.1347215E-1,1.5429378E-1],"categories":[],"categories_nodes":[],"categories_segments":[],"categories_sizes":[],"default_left":[1,1,0,0,0],"id":108,"left_children":[1,3,-1,-1,-1],"loss_changes":[2.6372325E-1,3.1646487E-1,0E0,0E0,0E0],"parents":[2147483647,0,0,1,1],"right_children":[2,4,-1,-1,-1],"split_conditions":[4.466032E1,1.2496058E1,-3.5753418E-2,-2.0673608E-2,7.714689E-3],"split_indices":[1,2,0,0,0],"split_type":[0,0,0,0,0],"sum_hessian":[4.6474867E0,2.1824257E0,2.4650607E0,1.0566959E0,1.1257299E0],"tree_param":{"num_deleted":"0","num_feature":"3","num_nodes":"5","size_leaf_vector":"0"}},{"base_weights":[-5.2332866E-1,-7.085219E-1,-1.5951245E-1,-4.464578E-1,1.8507673E-1],"categories":[],"categories_nodes":[],"categories_segments":[],"categories_sizes":[],"default_left":[1,0,1,0,0],"id":109,"left_children":[1,-1,3,-1,-1],"loss_changes":[2.6041818E-1,0E0,3.9510125E-1,0E0,0E0],"parents":[2147483647,0,0,2,2],"right_children":[2,-1,4,-1,-1],"split_conditions":[3.200212E1,-3.5426095E-2,1.235199E1,-2.2322891E-2,9.253836E-3],"split_indices":[0,0,2,0,0],"split_type":[0,0,0,0,0],"sum_hessian":[4.5425477E0,2.382376E0,2.160172E0,1.0173683E0,1.1428035E0],"tree_param":{"num_deleted":"0","num_feature":"3","num_nodes":"5","size_leaf_vector":"0"}},{"base_weights":[-5.159421E-1,-1.519784E-1,-7.022795E-1,-3.9782444E-1,1.55572E-1],"categories":[],"categories_nodes":[],"categories_segments":[],"categories_sizes":[],"default_left":[1,1,0,0,0],"id":110,"left_children":[1,3,-1,-1,-1],"loss_changes":[2.6207638E-1,2.9760808E-1,0E0,0E0,0E0],"parents":[2147483647,0,0,1,1],"right_children":[2,4,-1,-1,-1],"split_conditions":[4.466032E1,1.2496058E1,-3.5113975E-2,-1.9891223E-2,7.7786E-3],"split_indices":[1,2,0,0,0],"split_type":[0,0,0,0,0],"sum_hessian":[4.4380326E0,2.117545E0,2.3204877E0,1.0136995E0,1.1038454E0],"tree_param":{"num_deleted":"0","num_feature":"3","num_nodes":"5","size_leaf_vector":"0"}},{"base_weights":[-5.081781E-1,-6.957968E-1,-1.4735003E-1,-4.031465E-1,1.7795938E-1],"categories":[],"categories_nodes":[],"categories_segments":[],"categories_sizes":[],"default_left":[1,0,1,0,0],"id":111,"left_children":[1,-1,3,-1,-1],"loss_changes":[2.5905287E-1,0E0,3.293538E-1,0E0,0E0],"parents":[2147483647,0,0,2,2],"right_children":[2,-1,4,-1,-1],"split_conditions":[3.200212E1,-3.478984E-2,1.2486578E1,-2.0157326E-2,8.8979695E-3],"split_indices":[0,0,2,0,0],"split_type":[0,0,0,0,0],"sum_hessian":[4.341046E0,2.2452545E0,2.0957913E0,1.0393004E0,1.056491E0],"tree_param":{"num_deleted":"0","num_feature":"3","num_nodes":"5","size_leaf_vector":"0"}},{"base_weights":[-5.005591E-1,-1.4001453E-1,-6.895034E-1,-3.5499206E-1,1.4469787E-1],"categories":[],"categories_nodes":[],"categories_segments":[],"categories_sizes":[],"default_left":[1,1,0,0,0],"id":112,"left_children":[1,3,-1,-1,-1],"loss_changes":[2.6084447E-1,2.3858178E-1,0E0,0E0,0E0],"parents":[2147483647,0,0,1,1],"right_children":[2,4,-1,-1,-1],"split_conditions":[4.466032E1,1.2544908E1,-3.447517E-2,-1.7749604E-2,7.2348937E-3],"split_indices":[1,2,0,0,0],"split_type":[0,0,0,0,0],"sum_hessian":[4.2461834E0,2.0587332E0,2.1874504E0,1.0323746E0,1.0263585E0],"tree_param":{"num_deleted":"0","num_feature":"3","num_nodes":"5","size_leaf_vector":"0"}},{"base_weights":[-4.9262142E-1,-6.831145E-1,-1.3503866E-1,-3.8755786E-1,1.7906645E-1],"categories":[],"categories_nodes":[],"categories_segments":[],"categories_sizes":[],"default_left":[1,0,1,0,0],"id":113,"left_children":[1,-1,3,-1,-1],"loss_changes":[2.5912225E-1,0E0,3.104643E-1,0E0,0E0],"parents":[2147483647,0,0,2,2],"right_children":[2,-1,4,-1,-1],"split_conditions":[3.200212E1,-3.4155726E-2,1.2486578E1,-1.9377893E-2,8.953323E-3],"split_indices":[0,0,2,0,0],"split_type":[0,0,0,0,0],"sum_hessian":[4.158314E0,2.1190672E0,2.039247E0,1.0008134E0,1.0384337E0],"tree_param":{"num_deleted":"0","num_feature":"3","num_nodes":"5","size_leaf_vector":"0"}},{"base_weights":[-4.8515928E-1,-1.28318E-1,-6.76779E-1,-3.226028E-1,1.3050671E-1],"categories":[],"categories_nodes":[],"categories_segments":[],"categories_sizes":[],"default_left":[1,1,0,0,0],"id":114,"left_children":[1,3,-1,-1,-1],"loss_changes":[2.5986183E-1,1.9323307E-1,0E0,0E0,0E0],"parents":[2147483647,0,0,1,1],"right_children":[2,4,-1,-1,-1],"split_conditions":[4.466032E1,3.2389275E1,-3.383895E-2,-1.613014E-2,6.5253354E-3],"split_indices":[1,0,0,0,0],"split_type":[0,0,0,0,0],"sum_hessian":[4.070427E0,2.0054512E0,2.0649757E0,1.0047951E0,1.000656E0],"tree_param":{"num_deleted":"0","num_feature":"3","num_nodes":"5","size_leaf_vector":"0"}},{"base_weights":[-4.7721022E-1,-6.7107654E-1,-1.1985966E-1],"categories":[],"categories_nodes":[],"categories_segments":[],"categories_sizes":[],"default_left":[1,0,0],"id":115,"left_children":[1,-1,-1],"loss_changes":[2.6531732E-1,0E0,0E0],"parents":[2147483647,0,0],"right_children":[2,-1,-1],"split_conditions":[1.2083525E1,-3.3553828E-2,-5.992983E-3],"split_indices":[2,0,0],"split_type":[0,0,0],"sum_hessian":[3.9907765E0,2.0180447E0,1.9727318E0],"tree_param":{"num_deleted":"0","num_feature":"3","num_nodes":"3","size_leaf_vector":"0"}},{"base_weights":[-4.679427E-1,-6.644281E-1,-1.1546399E-1],"categories":[],"categories_nodes":[],"categories_segments":[],"categories_sizes":[],"default_left":[1,0,0],"id":116,"left_children":[1,-1,-1],"loss_changes":[2.6416862E-1,0E0,0E0],"parents":[2147483647,0,0],"right_children":[2,-1,-1],"split_conditions":[3.200212E1,-3.3221405E-2,-5.7731993E-3],"split_indices":[0,0,0],"split_type":[0,0,0],"sum_hessian":[3.9220524E0,1.9500191E0,1.9720334E0],"tree_param":{"num_deleted":"0","num_feature":"3","num_nodes":"3","size_leaf_vector":"0"}},{"base_weights":[-4.5879623E-1,-1.0557267E-1,-6.5901744E-1],"categories":[],"categories_nodes":[],"categories_segments":[],"categories_sizes":[],"default_left":[1,0,0],"id":117,"left_children":[1,-1,-1],"loss_changes":[2.7388942E-1,0E0,0E0],"parents":[2147483647,0,0],"right_children":[2,-1,-1],"split_conditions":[4.466032E1,-5.2786334E-3,-3.2950874E-2],"split_indices":[1,0,0],"split_type":[0,0,0],"sum_hessian":[3.8564737E0,1.9476951E0,1.9087784E0],"tree_param":{"num_deleted":"0","num_feature":"3","num_nodes":"3","size_leaf_vector":"0"}},{"base_weights":[-4.4981688E-1,-6.534398E-1,-9.6524745E-2],"categories":[],"categories_nodes":[],"categories_segments":[],"categories_sizes":[],"default_left":[1,0,0],"id":118,"left_children":[1,-1,-1],"loss_changes":[2.8172827E-1,0E0,0E0],"parents":[2147483647,0,0],"right_children":[2,-1,-1],"split_conditions":[1.2083525E1,-3.267199E-2,-4.8262374E-3],"split_indices":[2,0,0],"split_type":[0,0,0],"sum_hessian":[3.79301E0,1.8672378E0,1.9257722E0],"tree_param":{"num_deleted":"0","num_feature":"3","num_nodes":"3","size_leaf_vector":"0"}},{"base_weights":[-4.4100425E-1,-6.4692307E-1,-9.25606E-2],"categories":[],"categories_nodes":[],"categories_segments":[],"categories_sizes":[],"default_left":[1,0,0],"id":119,"left_children":[1,-1,-1],"loss_changes":[2.7961868E-1,0E0,0E0],"parents":[2147483647,0,0],"right_children":[2,-1,-1],"split_conditions":[3.200212E1,-3.2346155E-2,-4.62803E-3],"split_indices":[0,0,0],"split_type":[0,0,0],"sum_hessian":[3.7316096E0,1.807078E0,1.9245317E0],"tree_param":{"num_deleted":"0","num_feature":"3","num_nodes":"3","size_leaf_vector":"0"}},{"base_weights":[-4.323253E-1,-8.3678305E-2,-6.416018E-1],"categories":[],"categories_nodes":[],"categories_segments":[],"categories_sizes":[],"default_left":[1,0,0],"id":120,"left_children":[1,-1,-1],"loss_changes":[2.872666E-1,0E0,0E0],"parents":[2147483647,0,0],"right_children":[2,-1,-1],"split_conditions":[4.466032E1,-4.1839154E-3,-3.208009E-2],"split_indices":[1,0,0],"split_type":[0,0,0],"sum_hessian":[3.6729429E0,1.9027976E0,1.7701453E0],"tree_param":{"num_deleted":"0","num_feature":"3","num_nodes":"3","size_leaf_vector":"0"}},{"base_weights":[-4.2381802E-1,-6.3616353E-1,-7.547206E-2],"categories":[],"categories_nodes":[],"categories_segments":[],"categories_sizes":[],"default_left":[1,0,0],"id":121,"left_children":[1,-1,-1],"loss_changes":[2.9343802E-1,0E0,0E0],"parents":[2147483647,0,0],"right_children":[2,-1,-1],"split_conditions":[1.2083525E1,-3.180818E-2,-3.773603E-3],"split_indices":[2,0,0],"split_type":[0,0,0],"sum_hessian":[3.6160874E0,1.7332739E0,1.8828136E0],"tree_param":{"num_deleted":"0","num_feature":"3","num_nodes":"3","size_leaf_vector":"0"}},{"base_weights":[-4.1548142E-1,-6.2981266E-1,-7.189524E-2],"categories":[],"categories_nodes":[],"categories_segments":[],"categories_sizes":[],"default_left":[1,0,0],"id":122,"left_children":[1,-1,-1],"loss_changes":[2.905966E-1,0E0,0E0],"parents":[2147483647,0,0],"right_children":[2,-1,-1],"split_conditions":[3.200212E1,-3.1490635E-2,-3.5947622E-3],"split_indices":[0,0,0],"split_type":[0,0,0],"sum_hessian":[3.5609918E0,1.679964E0,1.8810278E0],"tree_param":{"num_deleted":"0","num_feature":"3","num_nodes":"3","size_leaf_vector":"0"}},{"base_weights":[-4.0728644E-1,-6.3961856E-2,-6.245883E-1],"categories":[],"categories_nodes":[],"categories_segments":[],"categories_sizes":[],"default_left":[1,0,0],"id":123,"left_children":[1,-1,-1],"loss_changes":[2.963906E-1,0E0,0E0],"parents":[2147483647,0,0],"right_children":[2,-1,-1],"split_conditions":[4.466032E1,-3.1980928E-3,-3.1229416E-2],"split_indices":[1,0,0],"split_type":[0,0,0],"sum_hessian":[3.5082786E0,1.8615232E0,1.6467555E0],"tree_param":{"num_deleted":"0","num_feature":"3","num_nodes":"3","size_leaf_vector":"0"}},{"base_weights":[-3.9926434E-1,-6.1930084E-1,-5.6541387E-2],"categories":[],"categories_nodes":[],"categories_segments":[],"categories_sizes":[],"default_left":[1,0,0],"id":124,"left_children":[1,-1,-1],"loss_changes":[3.011024E-1,0E0,0E0],"parents":[2147483647,0,0],"right_children":[2,-1,-1],"split_conditions":[1.2083525E1,-3.0965043E-2,-2.8270695E-3],"split_indices":[2,0,0],"split_type":[0,0,0],"sum_hessian":[3.457123E0,1.6139355E0,1.8431875E0],"tree_param":{"num_deleted":"0","num_feature":"3","num_nodes":"3","size_leaf_vector":"0"}},{"base_weights":[-3.9141405E-1,-6.13145E-1,-5.3309325E-2],"categories":[],"categories_nodes":[],"categories_segments":[],"categories_sizes":[],"default_left":[1,0,0],"id":125,"left_children":[1,-1,-1],"loss_changes":[2.9773432E-1,0E0,0E0],"parents":[2147483647,0,0],"right_children":[2,-1,-1],"split_conditions":[3.200212E1,-3.065725E-2,-2.6654664E-3],"split_indices":[0,0,0],"split_type":[0,0,0],"sum_hessian":[3.4074728E0,1.5666069E0,1.840866E0],"tree_param":{"num_deleted":"0","num_feature":"3","num_nodes":"3","size_leaf_vector":"0"}},{"base_weights":[-3.8370925E-1,-4.626199E-2,-6.0802275E-1],"categories":[],"categories_nodes":[],"categories_segments":[],"categories_sizes":[],"default_left":[1,0,0],"id":126,"left_children":[1,-1,-1],"loss_changes":[3.0189002E-1,0E0,0E0],"parents":[2147483647,0,0],"right_children":[2,-1,-1],"split_conditions":[4.466032E1,-2.3130996E-3,-3.0401139E-2],"split_indices":[1,0,0],"split_type":[0,0,0],"sum_hessian":[3.359903E0,1.8232797E0,1.5366232E0],"tree_param":{"num_deleted":"0","num_feature":"3","num_nodes":"3","size_leaf_vector":"0"}},{"base_weights":[-3.7617534E-1,-6.028947E-1,-3.9569847E-2],"categories":[],"categories_nodes":[],"categories_segments":[],"categories_sizes":[],"default_left":[1,0,0],"id":127,"left_children":[1,-1,-1],"loss_changes":[3.0534196E-1,0E0,0E0],"parents":[2147483647,0,0],"right_children":[2,-1,-1],"split_conditions":[1.2083525E1,-3.0144736E-2,-1.9784924E-3],"split_indices":[2,0,0],"split_type":[0,0,0],"sum_hessian":[3.3136804E0,1.5073252E0,1.8063552E0],"tree_param":{"num_deleted":"0","num_feature":"3","num_nodes":"3","size_leaf_vector":"0"}},{"base_weights":[-3.6881128E-1,-5.9695786E-1,-3.6640897E-2],"categories":[],"categories_nodes":[],"categories_segments":[],"categories_sizes":[],"default_left":[1,0,0],"id":128,"left_children":[1,-1,-1],"loss_changes":[3.0162793E-1,0E0,0E0],"parents":[2147483647,0,0],"right_children":[2,-1,-1],"split_conditions":[3.200212E1,-2.9847894E-2,-1.8320449E-3],"split_indices":[0,0,0],"split_type":[0,0,0],"sum_hessian":[3.26875E0,1.4652323E0,1.8035178E0],"tree_param":{"num_deleted":"0","num_feature":"3","num_nodes":"3","size_leaf_vector":"0"}},{"base_weights":[-3.6159402E-1,-3.0415986E-2,-5.9194064E-1],"categories":[],"categories_nodes":[],"categories_segments":[],"categories_sizes":[],"default_left":[1,0,0],"id":129,"left_children":[1,-1,-1],"loss_changes":[3.0435157E-1,0E0,0E0],"parents":[2147483647,0,0],"right_children":[2,-1,-1],"split_conditions":[4.466032E1,-1.5207994E-3,-2.9597033E-2],"split_indices":[1,0,0],"split_type":[0,0,0],"sum_hessian":[3.2256384E0,1.7875929E0,1.4380456E0],"tree_param":{"num_deleted":"0","num_feature":"3","num_nodes":"3","size_leaf_vector":"0"}},{"base_weights":[-3.5454413E-1,-5.8697796E-1,-2.4396224E-2],"categories":[],"categories_nodes":[],"categories_segments":[],"categories_sizes":[],"default_left":[1,0,0],"id":130,"left_children":[1,-1,-1],"loss_changes":[3.0672675E-1,0E0,0E0],"parents":[2147483647,0,0],"right_children":[2,-1,-1],"split_conditions":[1.2083525E1,-2.9348899E-2,-1.2198113E-3],"split_indices":[2,0,0],"split_type":[0,0,0],"sum_hessian":[3.1836984E0,1.4118149E0,1.7718835E0],"tree_param":{"num_deleted":"0","num_feature":"3","num_nodes":"3","size_leaf_vector":"0"}},{"base_weights":[-3.4765923E-1,-5.812794E-1,-2.1731945E-2],"categories":[],"categories_nodes":[],"categories_segments":[],"categories_sizes":[],"default_left":[1,0,0],"id":131,"left_children":[1,-1,-1],"loss_changes":[3.0281913E-1,0E0,0E0],"parents":[2147483647,0,0],"right_children":[2,-1,-1],"split_conditions":[3.200212E1,-2.906397E-2,-1.0865972E-3],"split_indices":[0,0,0],"split_type":[0,0,0],"sum_hessian":[3.1428728E0,1.3743175E0,1.7685552E0],"tree_param":{"num_deleted":"0","num_feature":"3","num_nodes":"3","size_leaf_vector":"0"}},{"base_weights":[-3.4092E-1,-1.6266776E-2,-5.763683E-1],"categories":[],"categories_nodes":[],"categories_segments":[],"categories_sizes":[],"default_left":[1,0,0],"id":132,"left_children":[1,-1,-1],"loss_changes":[3.043027E-1,0E0,0E0],"parents":[2147483647,0,0],"right_children":[2,-1,-1],"split_conditions":[4.466032E1,-8.1333885E-4,-2.8818414E-2],"split_indices":[1,0,0],"split_type":[0,0,0],"sum_hessian":[3.1036398E0,1.754078E0,1.3495619E0],"tree_param":{"num_deleted":"0","num_feature":"3","num_nodes":"3","size_leaf_vector":"0"}},{"base_weights":[-3.3434212E-1,-5.7157415E-1,-1.08634615E-2],"categories":[],"categories_nodes":[],"categories_segments":[],"categories_sizes":[],"default_left":[1,0,0],"id":133,"left_children":[1,-1,-1],"loss_changes":[3.0577004E-1,0E0,0E0],"parents":[2147483647,0,0],"right_children":[2,-1,-1],"split_conditions":[1.2083525E1,-2.8578708E-2,-5.431731E-4],"split_indices":[2,0,0],"split_type":[0,0,0],"sum_hessian":[3.0654323E0,1.3260072E0,1.7394252E0],"tree_param":{"num_deleted":"0","num_feature":"3","num_nodes":"3","size_leaf_vector":"0"}},{"base_weights":[-3.279239E-1,-5.6612873E-1,-8.428817E-3],"categories":[],"categories_nodes":[],"categories_segments":[],"categories_sizes":[],"default_left":[1,0,0],"id":134,"left_children":[1,-1,-1],"loss_changes":[3.017946E-1,0E0,0E0],"parents":[2147483647,0,0],"right_children":[2,-1,-1],"split_conditions":[3.200212E1,-2.8306438E-2,-4.2144084E-4],"split_indices":[0,0,0],"split_type":[0,0,0],"sum_hessian":[3.0281882E0,1.2925545E0,1.7356336E0],"tree_param":{"num_deleted":"0","num_feature":"3","num_nodes":"3","size_leaf_vector":"0"}},{"base_weights":[-3.2164773E-1,-3.662797E-3,-5.613233E-1],"categories":[],"categories_nodes":[],"categories_segments":[],"categories_sizes":[],"default_left":[1,0,0],"id":135,"left_children":[1,-1,-1],"loss_changes":[3.022133E-1,0E0,0E0],"parents":[2147483647,0,0],"right_children":[2,-1,-1],"split_conditions":[4.466032E1,-1.8313985E-4,-2.8066164E-2],"split_indices":[1,0,0],"split_type":[0,0,0],"sum_hessian":[2.9923437E0,1.7224278E0,1.2699157E0],"tree_param":{"num_deleted":"0","num_feature":"3","num_nodes":"3","size_leaf_vector":"0"}},{"base_weights":[-3.15526E-1,-5.56699E-1,1.1764774E-3],"categories":[],"categories_nodes":[],"categories_segments":[],"categories_sizes":[],"default_left":[1,0,0],"id":136,"left_children":[1,-1,-1],"loss_changes":[3.0292162E-1,0E0,0E0],"parents":[2147483647,0,0],"right_children":[2,-1,-1],"split_conditions":[1.2083525E1,-2.783495E-2,5.8823873E-5],"split_indices":[2,0,0],"split_type":[0,0,0],"sum_hessian":[2.9574025E0,1.2487019E0,1.7087005E0],"tree_param":{"num_deleted":"0","num_feature":"3","num_nodes":"3","size_leaf_vector":"0"}},{"base_weights":[-3.0955684E-1,-5.515178E-1,3.414465E-3],"categories":[],"categories_nodes":[],"categories_segments":[],"categories_sizes":[],"default_left":[1,0,0],"id":137,"left_children":[1,-1,-1],"loss_changes":[2.9898202E-1,0E0,0E0],"parents":[2147483647,0,0],"right_children":[2,-1,-1],"split_conditions":[3.200212E1,-2.757589E-2,1.7072326E-4],"split_indices":[0,0,0],"split_type":[0,0,0],"sum_hessian":[2.9232976E0,1.2188188E0,1.704479E0],"tree_param":{"num_deleted":"0","num_feature":"3","num_nodes":"3","size_leaf_vector":"0"}},{"base_weights":[-3.0372536E-1,7.5384337E-3,-5.46816E-1],"categories":[],"categories_nodes":[],"categories_segments":[],"categories_sizes":[],"default_left":[1,0,0],"id":138,"left_children":[1,-1,-1],"loss_changes":[2.984922E-1,0E0,0E0],"parents":[2147483647,0,0],"right_children":[2,-1,-1],"split_conditions":[4.466032E1,3.769217E-4,-2.73408E-2],"split_indices":[1,0,0],"split_type":[0,0,0],"sum_hessian":[2.8904223E0,1.6923951E0,1.1980271E0],"tree_param":{"num_deleted":"0","num_feature":"3","num_nodes":"3","size_leaf_vector":"0"}},{"base_weights":[-2.9804024E-1,-5.423608E-1,1.1863311E-2],"categories":[],"categories_nodes":[],"categories_segments":[],"categories_sizes":[],"default_left":[1,0,0],"id":139,"left_children":[1,-1,-1],"loss_changes":[2.9857218E-1,0E0,0E0],"parents":[2147483647,0,0],"right_children":[2,-1,-1],"split_conditions":[1.2083525E1,-2.711804E-2,5.931656E-4],"split_indices":[2,0,0],"split_type":[0,0,0],"sum_hessian":[2.8583488E0,1.1788647E0,1.679484E0],"tree_param":{"num_deleted":"0","num_feature":"3","num_nodes":"3","size_leaf_vector":"0"}},{"base_weights":[-2.9249984E-1,-5.3745115E-1,1.393398E-2],"categories":[],"categories_nodes":[],"categories_segments":[],"categories_sizes":[],"default_left":[1,0,0],"id":140,"left_children":[1,-1,-1],"loss_changes":[2.9474905E-1,0E0,0E0],"parents":[2147483647,0,0],"right_children":[2,-1,-1],"split_conditions":[3.200212E1,-2.6872559E-2,6.96699E-4],"split_indices":[0,0,0],"split_type":[0,0,0],"sum_hessian":[2.827005E0,1.1521394E0,1.6748654E0],"tree_param":{"num_deleted":"0","num_feature":"3","num_nodes":"3","size_leaf_vector":"0"}},{"base_weights":[-2.8709164E-1,1.7470162E-2,-5.328501E-1],"categories":[],"categories_nodes":[],"categories_segments":[],"categories_sizes":[],"default_left":[1,0,0],"id":141,"left_children":[1,-1,-1],"loss_changes":[2.9349E-1,0E0,0E0],"parents":[2147483647,0,0],"right_children":[2,-1,-1],"split_conditions":[4.466032E1,8.735081E-4,-2.6642505E-2],"split_indices":[1,0,0],"split_type":[0,0,0],"sum_hessian":[2.796743E0,1.6637793E0,1.1329635E0],"tree_param":{"num_deleted":"0","num_feature":"3","num_nodes":"3","size_leaf_vector":"0"}},{"base_weights":[-2.8182164E-1,-5.285617E-1,2.1326419E-2],"categories":[],"categories_nodes":[],"categories_segments":[],"categories_sizes":[],"default_left":[1,0,0],"id":142,"left_children":[1,-1,-1],"loss_changes":[2.9305404E-1,0E0,0E0],"parents":[2147483647,0,0],"right_children":[2,-1,-1],"split_conditions":[1.2083525E1,-2.6428087E-2,1.0663209E-3],"split_indices":[2,0,0],"split_type":[0,0,0],"sum_hessian":[2.7671976E0,1.1156032E0,1.6515945E0],"tree_param":{"num_deleted":"0","num_feature":"3","num_nodes":"3","size_leaf_vector":"0"}},{"base_weights":[-2.7668783E-1,-5.2392805E-1,2.3256166E-2],"categories":[],"categories_nodes":[],"categories_segments":[],"categories_sizes":[],"default_left":[1,0,0],"id":143,"left_children":[1,-1,-1],"loss_changes":[2.8940964E-1,0E0,0E0],"parents":[2147483647,0,0],"right_children":[2,-1,-1],"split_conditions":[3.200212E1,-2.6196403E-2,1.1628083E-3],"split_indices":[0,0,0],"split_type":[0,0,0],"sum_hessian":[2.7382913E0,1.0916797E0,1.6466116E0],"tree_param":{"num_deleted":"0","num_feature":"3","num_nodes":"3","size_leaf_vector":"0"}},{"base_weights":[-2.7168027E-1,2.6254687E-2,-5.1942396E-1],